{"learner":{"attributes":{"best_iteration":"129","best_score":"0.2572438382165728","scikit_learn":"{\"_estimator_type\": \"regressor\"}"},"feature_names":[],"feature_types":[],"gradient_booster":{"model":{"cats":{"enc":[],"feature_segments":[],"sorted_idx":[]},"gbtree_model_param":{"num_parallel_tree":"1","num_trees":"280"},"iteration_indptr":[0,1,2,3,4,5,6,7,8,9,10,11,12,13,14,15,16,17,18,19,20,21,22,23,24,25,26,27,28,29,30,31,32,33,34,35,36,37,38,39,40,41,42,43,44,45,46,47,48,49,50,51,52,53,54,55,56,57,58,59,60,61,62,63,64,65,66,67,68,69,70,71,72,73,74,75,76,77,78,79,80,81,82,83,84,85,86,87,88,89,90,91,92,93,94,95,96,97,98,99,100,101,102,103,104,105,106,107,108,109,110,111,112,113,114,115,116,117,118,119,120,121,122,123,124,125,126,127,128,129,130,131,132,133,134,135,136,137,138,139,140,141,142,143,144,145,146,147,148,149,150,151,152,153,154,155,156,157,158,159,160,161,162,163,164,165,166,167,168,169,170,171,172,173,174,175,176,177,178,179,180,181,182,183,184,185,186,187,188,189,190,191,192,193,194,195,196,197,198,199,200,201,202,203,204,205,206,207,208,209,210,211,212,213,214,215,216,217,218,219,220,221,222,223,224,225,226,227,228,229,230,231,232,233,234,235,236,237,238,239,240,241,242,243,244,245,246,247,248,249,250,251,252,253,254,255,256,257,258,259,260,261,262,263,264,265,266,267,268,269,270,271,272,273,274,275,276,277,278,279,280],"tree_info":[0,0,0,0,0,0,0,0,0,0,0,0,0,0,0,0,0,0,0,0,0,0,0,0,0,0,0,0,0,0,0,0,0,0,0,0,0,0,0,0,0,0,0,0,0,0,0,0,0,0,0,0,0,0,0,0,0,0,0,0,0,0,0,0,0,0,0,0,0,0,0,0,0,0,0,0,0,0,0,0,0,0,0,0,0,0,0,0,0,0,0,0,0,0,0,0,0,0,0,0,0,0,0,0,0,0,0,0,0,0,0,0,0,0,0,0,0,0,0,0,0,0,0,0,0,0,0,0,0,0,0,0,0,0,0,0,0,0,0,0,0,0,0,0,0,0,0,0,0,0,0,0,0,0,0,0,0,0,0,0,0,0,0,0,0,0,0,0,0,0,0,0,0,0,0,0,0,0,0,0,0,0,0,0,0,0,0,0,0,0,0,0,0,0,0,0,0,0,0,0,0,0,0,0,0,0,0,0,0,0,0,0,0,0,0,0,0,0,0,0,0,0,0,0,0,0,0,0,0,0,0,0,0,0,0,0,0,0,0,0,0,0,0,0,0,0,0,0,0,0,0,0,0,0,0,0,0,0,0,0,0,0,0,0,0,0,0,0,0,0,0,0,0,0,0,0,0,0,0,0],"trees":[{"base_weights":[-3.2560376E-3,5.331355E-1,-5.4270957E-2,7.6676136E-1,4.0772724E-1,5.6664955E-2,-7.9544954E-2,1.7693548E-2,6.995633E-1,3.722504E-1,7.0142853E-1,3.628888E-2,1.8450183E-1,-9.14924E-2,-4.6478286E-2,-1.0000002E-3,7.0307016E-1,4.532423E-1,2.9163876E-1,-1.0000002E-3,7.1304345E-1,3.033906E-2,4.6956518E-1,5.05E-1,1.5833332E-1,-9.8182306E-2,-8.080687E-2,-3.044415E-2,-7.116024E-2,7.557971E-1,6.153846E-1,4.8663792E-1,3.209677E-1,4.5894733E-1,2.126829E-1,7.886363E-1,5.576923E-1,-3.4753386E-2,5.3802565E-2,3.749998E-2,6.5625E-1,6.9285715E-1,5.7142835E-2,1.7238492E-1,-1.8571432E-3,-4.761907E-2,-9.843028E-2,-3.7591264E-2,-8.6199015E-2,4.2499998E-1,-3.1730104E-2,-7.4276194E-2,2.8749996E-1,9.571428E-3,1.5616E-2,2.3999996E-3,1.2735631E-2,4.0999996E-3,1.0215961E-2,2.2499994E-3,8.820512E-3,9.799999E-3,-1.6666669E-3,4.9828566E-3,-4.614553E-10,1.6944444E-2,9.333333E-3,-1.3333337E-3,1.2249999E-2,6.4E-3,-7.737561E-4,1.3502258E-3,-1.2272731E-3,9E-3,-1.714286E-3,1.4833333E-2,6.4E-3,1.6363636E-2,3.4999996E-3,9E-3,-1.6666669E-3,2.7777732E-4,3.9901957E-3,-1.9000004E-3,9E-3,-1.9736097E-3,-1.0000004E-3,1.1999999E-2,-8.8970637E-4,1.8181814E-3,-1.7411336E-3,1.1999999E-2,-1.0000002E-3,8.4999995E-3,-6.604321E-4,-1.6239107E-3,-3.125005E-4,-1.3333337E-3,8.333333E-3],"categories":[],"categories_nodes":[],"categories_segments":[],"categories_sizes":[],"default_left":[0,0,0,0,0,0,0,0,0,0,0,0,0,0,0,0,0,0,0,0,0,0,0,0,0,0,0,0,0,0,0,0,0,0,0,0,0,0,0,0,0,0,0,0,0,0,0,0,0,0,0,0,0,0,0,0,0,0,0,0,0,0,0,0,0,0,0,0,0,0,0,0,0,0,0,0,0,0,0,0,0,0,0,0,0,0,0,0,0,0,0,0,0,0,0,0,0,0,0],"id":0,"left_children":[1,3,5,7,9,11,13,-1,15,17,19,21,23,25,27,-1,29,31,33,-1,35,37,39,41,43,45,47,49,51,53,55,57,59,61,63,65,67,69,71,73,75,77,79,81,-1,83,85,87,89,91,93,95,97,-1,-1,-1,-1,-1,-1,-1,-1,-1,-1,-1,-1,-1,-1,-1,-1,-1,-1,-1,-1,-1,-1,-1,-1,-1,-1,-1,-1,-1,-1,-1,-1,-1,-1,-1,-1,-1,-1,-1,-1,-1,-1,-1,-1,-1,-1],"loss_changes":[3.1854553E2,2.9308258E1,2.9808836E1,2.1702576E0,6.615822E0,5.132601E0,3.4161987E0,0E0,6.371002E-1,3.7263947E0,6.465988E-1,4.375943E0,2.1929083E0,4.4664383E-1,9.080672E-1,0E0,5.890274E-1,1.1380997E0,3.8521786E0,0E0,3.7047958E-1,2.5692558E0,1.8305707E0,1.6430717E0,9.054737E-1,4.4288635E-2,5.686016E-1,8.3109426E-1,1.0327525E0,5.828705E-1,8.881607E-1,1.4739113E0,1.5021329E0,1.6405602E0,1.5896521E0,4.345951E-1,9.305439E-1,6.3488394E-1,1.9555178E0,4.4517857E-1,2.2220898E-1,7.654214E-1,4.2380953E-1,1.0247345E0,0E0,5.3788096E-1,4.2152405E-2,1.2310822E0,3.392067E-1,3.6249995E-1,8.3572114E-1,3.6316395E-1,3.9375007E-1,0E0,0E0,0E0,0E0,0E0,0E0,0E0,0E0,0E0,0E0,0E0,0E0,0E0,0E0,0E0,0E0,0E0,0E0,0E0,0E0,0E0,0E0,0E0,0E0,0E0,0E0,0E0,0E0,0E0,0E0,0E0,0E0,0E0,0E0,0E0,0E0,0E0,0E0,0E0,0E0,0E0,0E0,0E0,0E0,0E0,0E0],"parents":[2147483647,0,0,1,1,2,2,3,3,4,4,5,5,6,6,8,8,9,9,10,10,11,11,12,12,13,13,14,14,16,16,17,17,18,18,20,20,21,21,22,22,23,23,24,24,25,25,26,26,27,27,28,28,29,29,30,30,31,31,32,32,33,33,34,34,35,35,36,36,37,37,38,38,39,39,40,40,41,41,42,42,43,43,45,45,46,46,47,47,48,48,49,49,50,50,51,51,52,52],"right_children":[2,4,6,8,10,12,14,-1,16,18,20,22,24,26,28,-1,30,32,34,-1,36,38,40,42,44,46,48,50,52,54,56,58,60,62,64,66,68,70,72,74,76,78,80,82,-1,84,86,88,90,92,94,96,98,-1,-1,-1,-1,-1,-1,-1,-1,-1,-1,-1,-1,-1,-1,-1,-1,-1,-1,-1,-1,-1,-1,-1,-1,-1,-1,-1,-1,-1,-1,-1,-1,-1,-1,-1,-1,-1,-1,-1,-1,-1,-1,-1,-1,-1,-1],"split_conditions":[-1.2024481E0,-1.9405335E0,-3.5353407E-1,-2.5806143E0,5.9717315E-1,3.9049193E-1,7.447777E-2,3.7268486E-2,-1.0086306E0,-1.4844794E0,-6.5239364E-1,2.0151953E-1,-3.7952632E-1,1.2341831E1,5.114805E-1,-2.5551985E-3,-2.1195614E0,1.3489926E1,3.2447734E-1,-2.230095E-2,9.6627146E-1,1.9630134E-1,-3.2009557E-2,-6.664614E-1,-6.3687754E-1,-4.3308175E-1,-7.862548E-1,-4.4735846E-1,1.5662106E0,6.711959E-1,-1.8863208E0,3.3014008E-1,7.0496106E-1,-6.3614804E-1,1.1716316E0,-1.4557217E0,5.032564E-1,-5.985562E-1,-2.0818332E-1,1.3373401E1,1.430261E0,-5.411311E-1,-6.222896E-1,-8.9276636E-1,-5.500493E-3,1.020536E0,1.3649564E0,8.206154E-1,-6.024806E-1,-8.7022746E-1,-3.615299E-1,1.1743557E1,8.8161606E-1,3.2744493E-2,3.7268486E-2,1.1835861E-2,3.7268486E-2,1.5296247E-2,3.7268486E-2,1.8780993E-2,2.6619663E-2,3.5835147E-2,-2.9855918E-3,1.661453E-2,2.9723933E-3,3.7268486E-2,3.7268486E-2,-2.8121796E-2,3.7268486E-2,3.7268486E-2,-2.4520452E-3,1.0216484E-2,-6.0296063E-3,8.109284E-3,-9.13515E-3,3.7268486E-2,3.7268486E-2,3.2227237E-2,2.854229E-2,1.0216484E-2,-1.7402268E-3,7.629419E-3,2.1417744E-2,-4.6051353E-2,5.7536312E-3,-4.1349027E-2,-2.626209E-2,9.190616E-3,-2.0868678E-2,7.6202867E-3,-2.6106395E-2,1.1835861E-2,-8.188453E-2,1.3862914E-2,-3.6464308E-3,-1.4654586E-2,-1.1683896E-3,-8.109284E-3,3.7268486E-2],"split_indices":[56,56,56,56,212,212,212,0,193,56,193,193,103,258,141,0,56,256,8,0,211,212,2,24,56,82,71,11,259,259,202,212,141,24,259,56,7,24,86,258,259,56,0,86,0,141,259,186,202,0,151,256,135,0,0,0,0,0,0,0,0,0,0,0,0,0,0,0,0,0,0,0,0,0,0,0,0,0,0,0,0,0,0,0,0,0,0,0,0,0,0,0,0,0,0,0,0,0,0],"split_type":[0,0,0,0,0,0,0,0,0,0,0,0,0,0,0,0,0,0,0,0,0,0,0,0,0,0,0,0,0,0,0,0,0,0,0,0,0,0,0,0,0,0,0,0,0,0,0,0,0,0,0,0,0,0,0,0,0,0,0,0,0,0,0,0,0,0,0,0,0,0,0,0,0,0,0,0,0,0,0,0,0,0,0,0,0,0,0,0,0,0,0,0,0,0,0,0,0,0,0],"sum_hessian":[1.1639E4,1.01E3,1.0629E4,3.51E2,6.59E2,1.972E3,8.657E3,1.23E2,2.28E2,5.9E2,6.9E1,1.702E3,2.7E2,6.358E3,2.299E3,1E0,2.27E2,2.92E2,2.98E2,1E0,6.8E1,1.68E3,2.2E1,1.9E1,2.51E2,3.905E3,2.453E3,1.395E3,9.04E2,1.37E2,9E1,2.31E2,6.1E1,9.4E1,2.04E2,4.3E1,2.5E1,4.45E2,1.235E3,7E0,1.5E1,1.3E1,6E0,2.38E2,1.3E1,2E1,3.885E3,2.73E2,2.18E3,3E0,1.392E3,8.97E2,7E0,1.3E1,1.24E2,4E0,8.6E1,1.9E1,2.12E2,2.3E1,3.8E1,8.9E1,5E0,1.74E2,3E1,3.5E1,8E0,2E0,2.3E1,4E0,4.41E2,1.104E3,1.31E2,1E0,6E0,1.1E1,4E0,1E1,3E0,1E0,5E0,3.5E1,2.03E2,1.9E1,1E0,3.864E3,2.1E1,2E0,2.71E2,1E1,2.17E3,2E0,1E0,3E0,1.389E3,8.02E2,9.5E1,2E0,5E0],"tree_param":{"num_deleted":"0","num_feature":"261","num_nodes":"99","size_leaf_vector":"1"}},{"base_weights":[1.9024528E-3,5.36023E-1,-5.040928E-2,7.714285E-1,4.125547E-1,6.574905E-2,-7.550626E-2,8.148699E-1,6.3146067E-1,5.3177965E-1,3.4911108E-1,3.011111E-1,5.394442E-2,-8.343367E-2,-3.4986056E-2,8.596491E-1,7.292929E-1,7.0166665E-1,4.6999997E-1,5.1031387E-1,1.6714286E-2,5.578431E-1,2.87106E-1,1.01999976E-1,5.3658533E-1,1.01633966E-1,4.303487E-3,-4.5953263E-2,-9.01436E-2,-3.8805995E-2,1.730769E-1,1.7297618E-2,4.2499998E-1,7.3775506E-1,-1.0000002E-3,-1.0000002E-3,7.152542E-1,5.4399997E-1,8.333331E-2,5.391089E-1,2.2272725E-1,4.7466666E-1,7.607143E-1,3.0093166E-1,1.1785712E-1,4.8571426E-1,3.863634E-2,6.382353E-1,3.749998E-2,1.5923259E-1,5.3585634E-2,-2.7202496E-2,9.029534E-2,2.0312477E-2,-5.9717722E-2,-9.0595685E-2,4.0909067E-2,-8.088238E-2,-1.7274702E-2,3.1764704E-1,-1.8000003E-3,1.1999999E-2,-1.0000002E-3,1.0818181E-2,1.5688311E-2,1.5377778E-2,1.0133333E-2,1.1416666E-2,-1.0000002E-3,-1.6000004E-3,9E-3,1.4130433E-2,9.732483E-3,9.090909E-3,-1.666671E-4,1.5076922E-2,8.190475E-3,1.5851852E-2,-1.0000002E-3,5.4792445E-3,8.379309E-3,-8.421057E-4,8.199999E-3,1.4399999E-2,-1.3333337E-3,3.3043474E-3,-1.9090913E-3,5.749999E-3,1.437037E-2,5.333333E-3,-1.6666669E-3,1.4308938E-3,3.905084E-3,4.2483612E-4,2.0710654E-3,-1.6483991E-5,-1.2183103E-3,6.2727267E-3,1.3425921E-3,5.888888E-3,-1.6000048E-4,-1.2505498E-3,3.1666663E-3,-1.8209589E-3,5.8333285E-4,-9.0000045E-4,1.1999999E-2,-1.6926412E-3,7.999995E-4,-3.9956853E-4,6.8571423E-3,1.3249999E-2,1.9999956E-4],"categories":[],"categories_nodes":[],"categories_segments":[],"categories_sizes":[],"default_left":[0,0,0,0,0,0,0,0,0,0,0,0,0,0,0,0,0,0,0,0,0,0,0,0,0,0,0,0,0,0,0,0,0,0,0,0,0,0,0,0,0,0,0,0,0,0,0,0,0,0,0,0,0,0,0,0,0,0,0,0,0,0,0,0,0,0,0,0,0,0,0,0,0,0,0,0,0,0,0,0,0,0,0,0,0,0,0,0,0,0,0,0,0,0,0,0,0,0,0,0,0,0,0,0,0,0,0,0,0,0,0,0,0],"id":1,"left_children":[1,3,5,7,9,11,13,15,17,19,21,23,25,27,29,31,33,35,37,39,-1,41,43,45,47,49,51,53,55,57,59,-1,61,63,-1,-1,65,67,69,71,73,75,77,79,81,83,85,87,89,91,93,95,97,99,101,103,105,107,109,111,-1,-1,-1,-1,-1,-1,-1,-1,-1,-1,-1,-1,-1,-1,-1,-1,-1,-1,-1,-1,-1,-1,-1,-1,-1,-1,-1,-1,-1,-1,-1,-1,-1,-1,-1,-1,-1,-1,-1,-1,-1,-1,-1,-1,-1,-1,-1,-1,-1,-1,-1,-1,-1],"loss_changes":[3.260679E2,2.9938538E1,3.099087E1,1.6561279E0,4.995735E0,5.2320824E0,2.8048668E0,4.0390015E-1,6.7907715E-1,1.1132278E0,5.6639366E0,4.1649666E0,4.2607994E0,1.8342552E0,1.1448518E0,2.128601E-2,6.8974304E-1,6.485596E-1,8.1306696E-1,1.7266006E0,0E0,1.360075E0,7.8118515E-1,1.1969104E0,2.056077E0,2.5320482E0,2.3947308E0,1.015482E0,3.7098312E-1,1.273287E0,1.0174481E0,0E0,3.6249995E-1,4.7582245E-1,0E0,0E0,2.7049446E-1,4.2701626E-1,3.9533332E-1,1.4310837E0,1.1821969E0,1.055273E0,7.632656E-1,9.10244E-1,1.3257556E0,9.539046E-1,7.625988E-1,7.5080395E-1,2.4375E-1,1.3031921E0,8.091049E-1,5.7532173E-1,1.2051499E0,1.4925368E0,5.741732E-1,3.372841E-1,1.0836818E0,2.1914196E-1,9.143353E-1,1.7969558E0,0E0,0E0,0E0,0E0,0E0,0E0,0E0,0E0,0E0,0E0,0E0,0E0,0E0,0E0,0E0,0E0,0E0,0E0,0E0,0E0,0E0,0E0,0E0,0E0,0E0,0E0,0E0,0E0,0E0,0E0,0E0,0E0,0E0,0E0,0E0,0E0,0E0,0E0,0E0,0E0,0E0,0E0,0E0,0E0,0E0,0E0,0E0,0E0,0E0,0E0,0E0,0E0,0E0],"parents":[2147483647,0,0,1,1,2,2,3,3,4,4,5,5,6,6,7,7,8,8,9,9,10,10,11,11,12,12,13,13,14,14,15,15,16,16,17,17,18,18,19,19,21,21,22,22,23,23,24,24,25,25,26,26,27,27,28,28,29,29,30,30,32,32,33,33,36,36,37,37,38,38,39,39,40,40,41,41,42,42,43,43,44,44,45,45,46,46,47,47,48,48,49,49,50,50,51,51,52,52,53,53,54,54,55,55,56,56,57,57,58,58,59,59],"right_children":[2,4,6,8,10,12,14,16,18,20,22,24,26,28,30,32,34,36,38,40,-1,42,44,46,48,50,52,54,56,58,60,-1,62,64,-1,-1,66,68,70,72,74,76,78,80,82,84,86,88,90,92,94,96,98,100,102,104,106,108,110,112,-1,-1,-1,-1,-1,-1,-1,-1,-1,-1,-1,-1,-1,-1,-1,-1,-1,-1,-1,-1,-1,-1,-1,-1,-1,-1,-1,-1,-1,-1,-1,-1,-1,-1,-1,-1,-1,-1,-1,-1,-1,-1,-1,-1,-1,-1,-1,-1,-1,-1,-1,-1,-1],"split_conditions":[-1.2024481E0,-1.9405335E0,-3.6798164E-1,-2.1195614E0,-1.6404072E0,9.9587816E-1,1.2143555E0,9.9995315E-1,7.3608243E-1,-4.3877682E-1,-8.2109773E-1,9.072916E0,-6.5554315E-1,-4.138108E-1,4.577831E-1,9.911845E-1,1.3190023E1,6.629547E-1,8.311541E-1,1.2135485E1,3.652311E-2,1.1508927E1,9.999622E-1,-3.369355E-1,-5.6029543E-2,-6.5599066E-1,1.2833691E0,9.9766E-1,8.2413733E-1,8.513386E0,-3.5103866E-1,3.652311E-2,1.2594111E0,7.6426476E-1,-9.098053E-6,-6.989422E-3,9.999622E-1,2.0379746E0,8.4614044E-1,7.514707E-1,1.2594111E0,1.0985994E-1,1.1056448E0,9.9995196E-1,-5.1815957E-1,6.780714E-2,-3.5069948E-1,1.91374E-1,-6.853394E-1,9.993283E-1,9.999002E-1,9.9977714E-1,3.7326896E-1,-3.0385682E-1,-1.1768675E-1,1.0494214E1,-5.1853424E-1,1.7380577E0,4.0324762E-1,4.8285812E-1,-1.7476425E-2,1.3293056E-2,-1.7637806E-2,3.624714E-2,3.652311E-2,3.3002023E-2,2.4731664E-2,3.4843925E-2,-6.7266272E-3,-7.4537273E-4,1.1090488E-2,2.3355827E-2,3.652311E-2,3.6080655E-2,1.6624726E-4,3.655178E-2,3.114677E-2,3.652311E-2,-2.4655322E-2,1.8338094E-2,2.3887591E-2,-6.158872E-4,2.8826885E-2,3.652311E-2,-8.176393E-2,2.2874832E-2,-2.7982742E-3,2.3858147E-2,3.652311E-2,3.6840133E-2,-8.537635E-3,8.044278E-3,2.0227099E-2,3.7786968E-3,8.870447E-3,6.970408E-7,-5.7045934E-3,2.6001437E-2,1.001215E-2,3.6686774E-2,-2.462334E-3,-1.0515426E-2,1.0289421E-2,-3.295723E-2,5.4986225E-3,-1.3789986E-2,2.2630882E-2,-2.2573108E-2,2.3697758E-2,-3.5734938E-3,3.717373E-2,1.0738621E-2,3.7174767E-3],"split_indices":[56,56,56,56,56,260,259,260,8,38,24,257,56,24,75,259,257,259,259,257,0,257,260,8,8,24,259,260,128,257,156,0,0,141,0,0,260,0,8,259,0,8,259,260,24,9,9,21,9,260,260,260,141,3,9,257,19,259,215,210,0,0,0,0,0,0,0,0,0,0,0,0,0,0,0,0,0,0,0,0,0,0,0,0,0,0,0,0,0,0,0,0,0,0,0,0,0,0,0,0,0,0,0,0,0,0,0,0,0,0,0,0,0],"split_type":[0,0,0,0,0,0,0,0,0,0,0,0,0,0,0,0,0,0,0,0,0,0,0,0,0,0,0,0,0,0,0,0,0,0,0,0,0,0,0,0,0,0,0,0,0,0,0,0,0,0,0,0,0,0,0,0,0,0,0,0,0,0,0,0,0,0,0,0,0,0,0,0,0,0,0,0,0,0,0,0,0,0,0,0,0,0,0,0,0,0,0,0,0,0,0,0,0,0,0,0,0,0,0,0,0,0,0,0,0,0,0,0,0],"sum_hessian":[1.1668E4,1.04E3,1.0628E4,3.56E2,6.84E2,1.888E3,8.74E3,2.68E2,8.8E1,2.35E2,4.49E2,8.9E1,1.799E3,7.309E3,1.431E3,1.7E2,9.8E1,5.9E1,2.9E1,2.22E2,1.3E1,1.01E2,3.48E2,4.9E1,4E1,9.17E2,8.82E2,1.111E3,6.198E3,1.406E3,2.5E1,1.67E2,3E0,9.7E1,1E0,1E0,5.8E1,2.4E1,5E0,2.01E2,2.1E1,7.4E1,2.7E1,3.21E2,2.7E1,6E0,4.3E1,3.3E1,7E0,4.16E2,5.01E2,6.46E2,2.36E2,1.91E2,9.2E2,6.177E3,2.1E1,4.75E2,9.31E2,1.6E1,9E0,2E0,1E0,2.1E1,7.6E1,4.4E1,1.4E1,2.3E1,1E0,4E0,1E0,4.5E1,1.56E2,1E1,1.1E1,1.2E1,6.2E1,2.6E1,1E0,2.64E2,5.7E1,1.8E1,9E0,4E0,2E0,2.2E1,2.1E1,7E0,2.6E1,2E0,5E0,1.22E2,2.94E2,3.05E2,1.96E2,3.63E2,2.83E2,2.1E1,2.15E2,1.7E1,1.74E2,9.09E2,1.1E1,6.154E3,2.3E1,1.9E1,2E0,4.61E2,1.4E1,9.25E2,6E0,7E0,9E0],"tree_param":{"num_deleted":"0","num_feature":"261","num_nodes":"113","size_leaf_vector":"1"}},{"base_weights":[-1.194182E-3,5.059546E-1,-5.189457E-2,7.4491525E-1,3.852482E-1,6.422458E-2,-7.680746E-2,1.7290907E-2,6.881632E-1,2.7070704E-1,4.6748164E-1,5.925524E-2,5.722222E-1,-9.376297E-2,-5.5747002E-2,3.3571425E-1,7.064655E-1,7.538461E-1,2.4771927E-1,4.440318E-1,7.212121E-1,1.05349325E-1,1.4179081E-2,6.5625E-1,-1.3333337E-3,-3.603606E-2,-9.51018E-2,-6.4696305E-2,-2.2584565E-2,5.1E-1,-1.6000004E-3,6.70157E-1,1.7095238E-2,2.6666665E-1,1.6363636E-2,2.3249096E-1,6.8888885E-1,4.6173182E-1,1.04999974E-1,-1.3333337E-3,7.741935E-1,1.6674526E-1,5.2332632E-2,6.0222197E-2,-2.8220883E-2,7.0666665E-1,-1.0000002E-3,1.8181816E-1,-5.9405964E-2,-8.83197E-2,-9.812483E-2,-3.5106406E-2,-7.974374E-2,2.3999998E-1,-2.73956E-2,1.3249999E-2,-1.3333337E-3,1.3566137E-2,-1.3333337E-3,9E-3,-1.0000002E-3,4.2625475E-3,9.68421E-3,1.5749998E-2,-1.0000002E-3,1.3038461E-2,8.56026E-3,4.8333327E-3,-1.7777783E-3,1.6066665E-2,-1.0000002E-3,-4.674874E-10,3.7807482E-3,8.199999E-3,8.9669373E-4,8.5496134E-4,3.5517237E-3,9E-3,-6.024595E-4,-1.0000002E-3,1.5285714E-2,-1.6666669E-3,8.333333E-3,-1.3737378E-3,5.333333E-3,2.3999996E-3,-1.7794525E-3,-1.9685093E-3,-5.333338E-4,-7.3469436E-4,4.9999994E-3,-1.2928316E-3,-1.7995033E-3,-4.3348833E-10,1.4399999E-2,6.8571423E-3,-6.113866E-4],"categories":[],"categories_nodes":[],"categories_segments":[],"categories_sizes":[],"default_left":[0,0,0,0,0,0,0,0,0,0,0,0,0,0,0,0,0,0,0,0,0,0,0,0,0,0,0,0,0,0,0,0,0,0,0,0,0,0,0,0,0,0,0,0,0,0,0,0,0,0,0,0,0,0,0,0,0,0,0,0,0,0,0,0,0,0,0,0,0,0,0,0,0,0,0,0,0,0,0,0,0,0,0,0,0,0,0,0,0,0,0,0,0,0,0,0,0],"id":2,"left_children":[1,3,5,7,9,11,13,-1,15,17,19,21,23,25,27,29,31,33,35,37,39,41,43,45,-1,47,49,51,53,55,-1,57,-1,59,-1,61,63,65,67,-1,69,71,73,75,77,79,-1,81,83,85,87,89,91,93,95,-1,-1,-1,-1,-1,-1,-1,-1,-1,-1,-1,-1,-1,-1,-1,-1,-1,-1,-1,-1,-1,-1,-1,-1,-1,-1,-1,-1,-1,-1,-1,-1,-1,-1,-1,-1,-1,-1,-1,-1,-1,-1],"loss_changes":[2.993214E2,3.0230072E1,3.0620106E1,1.8084412E0,6.5139236E0,4.686743E0,3.1064644E0,0E0,1.3432312E0,3.111826E0,2.1132889E0,3.848566E0,1.0100694E0,3.6955643E-1,1.1527185E0,1.055143E0,6.7635345E-1,1.892767E-1,1.754549E0,2.2138367E0,1.4291306E0,2.9728632E0,1.8328881E0,6.05042E-1,0E0,5.75928E-1,8.802414E-2,1.3605623E0,1.0525904E0,9.2358327E-1,0E0,1.1921692E0,0E0,1.9666666E-1,0E0,1.2469492E0,6.9513893E-1,2.016838E0,5.5144453E-1,0E0,7.8468704E-1,1.5760546E0,1.3037307E0,9.152837E-1,4.5835954E-1,6.921902E-1,0E0,7.19697E-1,3.2396835E-1,2.0980835E-1,6.7258835E-2,4.8920977E-1,3.0769825E-1,1.7279999E0,9.669976E-1,0E0,0E0,0E0,0E0,0E0,0E0,0E0,0E0,0E0,0E0,0E0,0E0,0E0,0E0,0E0,0E0,0E0,0E0,0E0,0E0,0E0,0E0,0E0,0E0,0E0,0E0,0E0,0E0,0E0,0E0,0E0,0E0,0E0,0E0,0E0,0E0,0E0,0E0,0E0,0E0,0E0,0E0],"parents":[2147483647,0,0,1,1,2,2,3,3,4,4,5,5,6,6,8,8,9,9,10,10,11,11,12,12,13,13,14,14,15,15,16,16,17,17,18,18,19,19,20,20,21,21,22,22,23,23,25,25,26,26,27,27,28,28,29,29,31,31,33,33,35,35,36,36,37,37,38,38,40,40,41,41,42,42,43,43,44,44,45,45,47,47,48,48,49,49,50,50,51,51,52,52,53,53,54,54],"right_children":[2,4,6,8,10,12,14,-1,16,18,20,22,24,26,28,30,32,34,36,38,40,42,44,46,-1,48,50,52,54,56,-1,58,-1,60,-1,62,64,66,68,-1,70,72,74,76,78,80,-1,82,84,86,88,90,92,94,96,-1,-1,-1,-1,-1,-1,-1,-1,-1,-1,-1,-1,-1,-1,-1,-1,-1,-1,-1,-1,-1,-1,-1,-1,-1,-1,-1,-1,-1,-1,-1,-1,-1,-1,-1,-1,-1,-1,-1,-1,-1,-1],"split_conditions":[-1.2024481E0,-1.9405335E0,-3.6798164E-1,-9.257562E-1,1.3021699E1,2.097305E-1,1.27128935E1,3.5792656E-2,1.3476593E0,1.00378424E-1,1.3811171E1,-6.5554315E-1,1.2327461E1,-4.7091374E-1,4.3842894E-1,1.438021E0,2.4967475E0,-8.131514E-2,1.7101451E0,1.2135485E1,9.3727505E-1,-6.5599066E-1,9.994654E-1,6.780714E-2,-2.4121875E-2,1.1917063E1,5.251632E-1,-4.51121E-1,8.641489E-1,-1.4340445E0,-6.081009E-4,2.7251198E0,3.5792656E-2,-1.0741091E-1,3.582075E-2,1.3918902E0,9.433185E-1,7.543598E-1,-6.1872387E-1,-1.4019298E-2,8.189495E-1,-2.44554E-1,1.1693836E1,-4.6050167E-1,1.2317999E1,1.1419157E0,-1.2044925E-2,-5.2457404E-1,2.1066885E-2,-8.560037E-1,1.3649564E0,9.1432846E-1,2.2088458E-1,8.1512046E-1,8.206154E-1,3.0783309E-2,-3.5126305E-3,3.5792656E-2,-1.9062995E-3,1.5579605E-3,-1.5339317E-2,1.5639246E-2,2.5774075E-2,2.846012E-2,-3.7285995E-3,2.301518E-2,3.38598E-2,2.8323097E-2,-3.848076E-4,3.5792656E-2,-2.2585392E-2,4.3800576E-3,1.9454949E-2,2.0103624E-2,7.4045835E-3,5.5455244E-3,1.2786387E-2,1.8121433E-2,-2.119311E-3,-6.894111E-4,3.611079E-2,-1.6671581E-2,1.0499725E-2,-1.7386332E-2,3.348503E-3,1.4861297E-3,-2.620779E-2,-4.3248285E-2,-1.4288363E-2,-5.1685795E-3,1.0360889E-2,-1.1740191E-2,-2.6993584E-2,7.1186345E-4,2.5155924E-2,1.0523853E-2,-4.220606E-3],"split_indices":[56,56,56,24,256,193,258,0,106,8,256,56,256,24,198,243,214,8,2,257,115,24,260,9,0,258,193,24,259,3,0,17,0,0,0,259,259,259,193,0,0,193,256,9,258,259,0,0,0,120,259,20,56,259,186,0,0,0,0,0,0,0,0,0,0,0,0,0,0,0,0,0,0,0,0,0,0,0,0,0,0,0,0,0,0,0,0,0,0,0,0,0,0,0,0,0,0],"split_type":[0,0,0,0,0,0,0,0,0,0,0,0,0,0,0,0,0,0,0,0,0,0,0,0,0,0,0,0,0,0,0,0,0,0,0,0,0,0,0,0,0,0,0,0,0,0,0,0,0,0,0,0,0,0,0,0,0,0,0,0,0,0,0,0,0,0,0,0,0,0,0,0,0,0,0,0,0,0,0,0,0,0,0,0,0,0,0,0,0,0,0,0,0,0,0,0,0],"sum_hessian":[1.1639E4,1.057E3,1.0582E4,3.53E2,7.04E2,1.869E3,8.713E3,1.09E2,2.44E2,2.96E2,4.08E2,1.852E3,1.7E1,4.825E3,3.888E3,1.3E1,2.31E2,1.2E1,2.84E2,3.76E2,3.2E1,9.15E2,9.37E2,1.5E1,2E0,1.1E2,4.715E3,3.061E3,8.27E2,9E0,4E0,1.9E2,4.1E1,2E0,1E1,2.76E2,8E0,3.57E2,1.9E1,2E0,3E1,4.23E2,4.92E2,4.49E2,4.88E2,1.4E1,1E0,1E1,1E2,1.463E3,3.252E3,1.033E3,2.028E3,1.4E1,8.13E2,7E0,2E0,1.88E2,2E0,1E0,1E0,2.58E2,1.8E1,7E0,1E0,5.1E1,3.06E2,1.1E1,8E0,2.9E1,1E0,5E1,3.73E2,9E0,4.83E2,3.92E2,5.7E1,1E0,4.87E2,1E0,1.3E1,5E0,5E0,9.8E1,2E0,4E0,1.459E3,3.238E3,1.4E1,1.028E3,5E0,8.22E2,1.206E3,1E1,4E0,6E0,8.07E2],"tree_param":{"num_deleted":"0","num_feature":"261","num_nodes":"97","size_leaf_vector":"1"}},{"base_weights":[-2.0749618E-3,4.8724768E-1,-5.251563E-2,3.788387E-1,7.5158226E-1,5.915641E-2,-7.654565E-2,2.692073E-1,4.582589E-1,6.6772485E-1,1.7390624E-2,4.1432045E-2,1.7958331E-1,-8.994985E-2,-3.974196E-2,6.434782E-1,2.4019605E-1,5.988372E-1,4.2369142E-1,6.759358E-1,-1.3333337E-3,3.5453375E-2,2.4255317E-1,-2.5000023E-2,2.0563377E-1,-9.5290884E-2,-7.502968E-2,5.2E-1,-4.093066E-2,7.142857E-1,-1.3333337E-3,3.0628568E-1,1.5075755E-1,1.5888888E-2,5.391304E-1,5.058823E-1,3.820408E-1,6.4294475E-1,1.728E-2,8.3920345E-2,1.6025403E-3,6.7692304E-1,7.428569E-2,9E-3,-5.925928E-2,1.21100895E-1,2.9142854E-1,-9.6223526E-2,-6.927713E-2,-1.170734E-2,-8.3738215E-2,1.34999985E-2,-1.0000002E-3,-4.3038554E-2,8.684208E-2,1.50999995E-2,-1.0000002E-3,5.2499995E-3,1.1416666E-2,6.1621615E-3,1.7708328E-3,-1.3333337E-3,1.1164178E-2,1.058407E-2,1.1428567E-3,8.516128E-3,8.2758575E-4,1.3329114E-2,-1.6666669E-3,1.0845982E-3,3.0880824E-3,-6.6513807E-4,6.387221E-4,1.4833333E-2,-1.0000002E-3,5.2857134E-3,-1.0000004E-3,2.3999996E-3,-1.913044E-3,9.374999E-3,1.2127655E-3,1.1999999E-2,4.903225E-3,-1.9912599E-3,-1.8399606E-3,1.1999999E-2,-1.6219517E-3,1.6119397E-3,-1.1223026E-3,-1.718093E-3,-5.61404E-4,-9.967677E-4,-2.7039673E-4,1.1999999E-2,8.3333283E-4],"categories":[],"categories_nodes":[],"categories_segments":[],"categories_sizes":[],"default_left":[0,0,0,0,0,0,0,0,0,0,0,0,0,0,0,0,0,0,0,0,0,0,0,0,0,0,0,0,0,0,0,0,0,0,0,0,0,0,0,0,0,0,0,0,0,0,0,0,0,0,0,0,0,0,0,0,0,0,0,0,0,0,0,0,0,0,0,0,0,0,0,0,0,0,0,0,0,0,0,0,0,0,0,0,0,0,0,0,0,0,0,0,0,0,0],"id":3,"left_children":[1,3,5,7,9,11,13,15,17,19,-1,21,23,25,27,29,31,33,35,37,-1,39,41,43,45,47,49,51,53,55,-1,57,59,-1,61,63,65,67,-1,69,71,73,75,-1,77,79,81,83,85,87,89,-1,-1,91,93,-1,-1,-1,-1,-1,-1,-1,-1,-1,-1,-1,-1,-1,-1,-1,-1,-1,-1,-1,-1,-1,-1,-1,-1,-1,-1,-1,-1,-1,-1,-1,-1,-1,-1,-1,-1,-1,-1,-1,-1],"loss_changes":[2.8788895E2,3.0950592E1,2.8379658E1,6.624527E0,2.5449066E0,3.9904594E0,4.2893333E0,3.4068851E0,1.9233017E0,1.1847534E0,0E0,1.956182E0,1.2842193E0,5.0110626E-1,1.5682552E0,1.2041407E0,1.762577E0,5.760937E-1,1.0493927E0,6.0472107E-1,0E0,2.6052136E0,3.3849595E0,4.8231483E-1,1.5094862E0,1.0719299E-1,9.2875576E-1,4.755E-1,6.288557E-1,6.9121456E-1,0E0,1.8772526E0,1.2649608E0,0E0,8.346977E-1,1.2151146E0,3.635147E0,2.8388367E0,0E0,1.3581557E0,9.9079895E-1,6.48911E-1,8.397143E-1,0E0,1.8761998E-1,2.2627313E0,1.351963E0,5.4733276E-2,1.3619108E0,8.4482414E-1,1.7632008E-1,0E0,0E0,4.5777607E-1,8.5592103E-1,0E0,0E0,0E0,0E0,0E0,0E0,0E0,0E0,0E0,0E0,0E0,0E0,0E0,0E0,0E0,0E0,0E0,0E0,0E0,0E0,0E0,0E0,0E0,0E0,0E0,0E0,0E0,0E0,0E0,0E0,0E0,0E0,0E0,0E0,0E0,0E0,0E0,0E0,0E0,0E0],"parents":[2147483647,0,0,1,1,2,2,3,3,4,4,5,5,6,6,7,7,8,8,9,9,11,11,12,12,13,13,14,14,15,15,16,16,17,17,18,18,19,19,21,21,22,22,23,23,24,24,25,25,26,26,27,27,28,28,29,29,31,31,32,32,34,34,35,35,36,36,37,37,39,39,40,40,41,41,42,42,44,44,45,45,46,46,47,47,48,48,49,49,50,50,53,53,54,54],"right_children":[2,4,6,8,10,12,14,16,18,20,-1,22,24,26,28,30,32,34,36,38,-1,40,42,44,46,48,50,52,54,56,-1,58,60,-1,62,64,66,68,-1,70,72,74,76,-1,78,80,82,84,86,88,90,-1,-1,92,94,-1,-1,-1,-1,-1,-1,-1,-1,-1,-1,-1,-1,-1,-1,-1,-1,-1,-1,-1,-1,-1,-1,-1,-1,-1,-1,-1,-1,-1,-1,-1,-1,-1,-1,-1,-1,-1,-1,-1,-1],"split_conditions":[-1.1725667E0,1.3699367E1,-3.6798164E-1,1.3021699E1,7.258676E-1,3.9049193E-1,7.447777E-2,1.382491E-1,-1.9405335E0,-1.019453E0,3.507681E-2,-4.429915E-1,-1.108097E0,1.2761683E1,-4.4184062E-1,1.0887456E1,-1.4227687E0,-2.1195614E0,4.4105902E-1,-8.9729846E-1,-1.3738918E-2,-6.772134E-1,-2.835426E-1,8.011687E-2,1.2382362E1,2.4122195E-1,-5.0847185E-1,-8.7022746E-1,3.1530833E-1,4.640333E-1,-9.761714E-3,-1.3820816E0,2.8521895E-1,3.5169728E-2,-1.56478E0,-8.5047024E-1,-8.92727E-1,-1.1407624E0,3.5130568E-2,3.3970314E-1,-1.8404044E-1,-3.5069948E-1,1.1560304E1,3.6046486E-2,1.2353532E1,2.9316207E-2,-6.760445E-2,1.1666642E1,-1.7365234E-1,1.0058083E1,1.14977455E1,1.0445309E-2,-7.904783E-2,9.540758E-1,1.1088629E1,3.510433E-2,-4.6908567E-3,1.839091E-2,2.0734996E-2,3.3865184E-2,8.36149E-3,-1.9794654E-3,3.0671122E-2,3.511545E-2,1.0305271E-2,2.790339E-2,7.716937E-3,3.507681E-2,-1.6389847E-4,8.512463E-3,1.7028106E-2,-2.3892403E-3,7.043545E-3,3.5070438E-2,-2.237627E-2,1.961913E-2,-1.8222532E-3,1.1477947E-2,-2.6640897E-3,2.9141096E-2,8.7176245E-3,3.629015E-2,2.4343722E-2,-4.843063E-2,-3.018783E-2,3.897392E-2,-1.8342514E-2,6.50328E-3,-4.9065683E-2,-2.4385242E-2,-3.904201E-3,-7.7226637E-3,-3.4176062E-3,8.357067E-3,1.0464268E-2],"split_indices":[56,256,56,256,212,212,212,8,56,145,0,170,56,258,222,257,126,56,8,148,0,56,32,8,256,95,45,0,212,0,0,203,8,0,170,32,110,40,0,212,117,9,256,0,256,156,8,258,122,256,256,0,0,197,256,0,0,0,0,0,0,0,0,0,0,0,0,0,0,0,0,0,0,0,0,0,0,0,0,0,0,0,0,0,0,0,0,0,0,0,0,0,0,0,0],"split_type":[0,0,0,0,0,0,0,0,0,0,0,0,0,0,0,0,0,0,0,0,0,0,0,0,0,0,0,0,0,0,0,0,0,0,0,0,0,0,0,0,0,0,0,0,0,0,0,0,0,0,0,0,0,0,0,0,0,0,0,0,0,0,0,0,0,0,0,0,0,0,0,0,0,0,0,0,0,0,0,0,0,0,0,0,0,0,0,0,0,0,0,0,0,0,0],"sum_hessian":[1.1662E4,1.089E3,1.0573E4,7.74E2,3.15E2,1.872E3,8.701E3,3.27E2,4.47E2,1.88E2,1.27E2,1.633E3,2.39E2,6.377E3,2.324E3,2.2E1,3.05E2,8.5E1,3.62E2,1.86E2,2E0,1.587E3,4.6E1,2.7E1,2.12E2,4.692E3,1.685E3,4E0,2.32E3,2E1,2E0,1.74E2,1.31E2,1.7E1,6.8E1,1.18E2,2.44E2,1.62E2,2.4E1,6.52E2,9.35E2,1.2E1,3.4E1,1E0,2.6E1,1.08E2,1.04E2,4.527E3,1.65E2,2.04E2,1.481E3,3E0,1E0,2.283E3,3.7E1,1.9E1,1E0,1.51E2,2.3E1,3.6E1,9.5E1,2E0,6.6E1,1.12E2,6E0,2.16E2,2.8E1,1.57E2,5E0,4.6E2,1.92E2,4.35E2,5E2,1.1E1,1E0,1.3E1,2.1E1,4E0,2.2E1,1.5E1,9.3E1,1.2E1,9.2E1,2.516E3,2.011E3,2E0,1.63E2,6.6E1,1.38E2,1.425E3,5.6E1,1.855E3,4.28E2,2E0,3.5E1],"tree_param":{"num_deleted":"0","num_feature":"261","num_nodes":"95","size_leaf_vector":"1"}},{"base_weights":[-4.0774434E-3,-4.920178E-2,5.24153E-1,-7.280273E-2,9.001929E-2,4.068106E-1,7.474522E-1,-8.9362726E-2,-3.43365E-2,5.884674E-2,2.2673608E-1,2.4999997E-1,4.560175E-1,6.6524065E-1,1.7234374E-2,-9.5566414E-2,-7.656327E-2,-3.9401993E-2,8.034185E-2,-4.4860053E-3,1.05054624E-1,5.1304346E-1,2.011278E-1,4.105263E-1,1.4555553E-1,2.285714E-1,4.8215157E-1,5.5698925E-1,7.642105E-1,-9.6006565E-2,-2.2222245E-2,-8.4692106E-2,-4.0920738E-2,1.1999999E-2,-4.011366E-2,2.9357774E-2,6.8888885E-1,1.1954021E-1,-2.850782E-2,9.245012E-2,3.8709676E-1,2.6428568E-1,1.62E-2,1.7795916E-1,4.5E-1,-1.5000004E-3,4.3888888E-1,2.6382977E-1,1.5909068E-2,3.8095236E-1,1.10344805E-1,4.9081883E-1,-1.714286E-3,1.7052632E-2,4.7466666E-1,7.7340424E-1,-1.0000002E-3,-1.7468712E-3,-1.954546E-3,-1.9200004E-3,1.1999999E-2,-1.8109673E-3,-1.1812504E-3,8.4999995E-3,-9.1237156E-4,8.791204E-4,-8.619612E-4,9.433915E-5,1.34999985E-2,1.5749998E-2,-1.0000002E-3,9.714285E-3,1.7283945E-3,1.1999999E-2,-6.532443E-4,1.0942403E-3,2.7414325E-3,1.1875E-2,3.1249993E-3,-1.6000004E-3,8.199999E-3,1.1333328E-3,4.935897E-3,1.353846E-2,2.1999995E-3,1.0139534E-2,3.1666663E-3,3.1794866E-3,1.3777777E-2,8.4999995E-3,-4.8780534E-4,1.542857E-2,3.4666662E-3,-2.5000045E-4,1.1666666E-2,1.159124E-2,8.868913E-3,2.6666662E-3,1.0268656E-2,1.6964285E-2,1.2923076E-2],"categories":[],"categories_nodes":[],"categories_segments":[],"categories_sizes":[],"default_left":[0,0,0,0,0,0,0,0,0,0,0,0,0,0,0,0,0,0,0,0,0,0,0,0,0,0,0,0,0,0,0,0,0,0,0,0,0,0,0,0,0,0,0,0,0,0,0,0,0,0,0,0,0,0,0,0,0,0,0,0,0,0,0,0,0,0,0,0,0,0,0,0,0,0,0,0,0,0,0,0,0,0,0,0,0,0,0,0,0,0,0,0,0,0,0,0,0,0,0,0,0],"id":4,"left_children":[1,3,5,7,9,11,13,15,17,19,21,23,25,27,-1,29,31,33,35,37,39,41,43,45,47,49,51,53,55,57,59,61,63,-1,65,67,69,71,73,75,77,79,-1,81,83,-1,85,87,89,91,93,95,-1,-1,97,99,-1,-1,-1,-1,-1,-1,-1,-1,-1,-1,-1,-1,-1,-1,-1,-1,-1,-1,-1,-1,-1,-1,-1,-1,-1,-1,-1,-1,-1,-1,-1,-1,-1,-1,-1,-1,-1,-1,-1,-1,-1,-1,-1,-1,-1],"loss_changes":[2.7711984E2,3.520022E1,2.3671173E1,5.8312187E0,6.6052513E0,4.5311203E0,2.3764648E0,5.0102234E-1,1.6052945E0,3.7053847E0,2.0083847E0,2.388094E0,2.606247E0,1.5777893E0,0E0,1.3694E-1,6.0352325E-1,1.2262893E0,3.6098428E0,1.5973518E0,2.566473E0,1.4849439E0,1.453682E0,8.1785107E-1,1.375848E0,8.4072256E-1,2.055107E0,1.8587227E0,7.4980545E-1,5.5294037E-2,1.2970667E0,2.505617E-1,8.7521696E-1,0E0,6.642647E-1,1.7309135E0,6.9513893E-1,1.0131485E0,1.1919682E0,1.1746206E0,1.3860888E0,7.351428E-1,0E0,2.0315824E0,1.6229229E0,0E0,9.5126057E-1,1.9852626E0,7.357539E-1,1.5687616E0,1.6923133E0,1.4372253E0,0E0,0E0,9.239559E-1,3.467636E-1,0E0,0E0,0E0,0E0,0E0,0E0,0E0,0E0,0E0,0E0,0E0,0E0,0E0,0E0,0E0,0E0,0E0,0E0,0E0,0E0,0E0,0E0,0E0,0E0,0E0,0E0,0E0,0E0,0E0,0E0,0E0,0E0,0E0,0E0,0E0,0E0,0E0,0E0,0E0,0E0,0E0,0E0,0E0,0E0,0E0],"parents":[2147483647,0,0,1,1,2,2,3,3,4,4,5,5,6,6,7,7,8,8,9,9,10,10,11,11,12,12,13,13,15,15,16,16,17,17,18,18,19,19,20,20,21,21,22,22,23,23,24,24,25,25,26,26,27,27,28,28,29,29,30,30,31,31,32,32,34,34,35,35,36,36,37,37,38,38,39,39,40,40,41,41,43,43,44,44,46,46,47,47,48,48,49,49,50,50,51,51,54,54,55,55],"right_children":[2,4,6,8,10,12,14,16,18,20,22,24,26,28,-1,30,32,34,36,38,40,42,44,46,48,50,52,54,56,58,60,62,64,-1,66,68,70,72,74,76,78,80,-1,82,84,-1,86,88,90,92,94,96,-1,-1,98,100,-1,-1,-1,-1,-1,-1,-1,-1,-1,-1,-1,-1,-1,-1,-1,-1,-1,-1,-1,-1,-1,-1,-1,-1,-1,-1,-1,-1,-1,-1,-1,-1,-1,-1,-1,-1,-1,-1,-1,-1,-1,-1,-1,-1,-1],"split_conditions":[1.28456955E1,2.492943E-1,1.3699367E1,7.447777E-2,4.03076E-1,1.3021699E1,7.258676E-1,-1.1793188E-2,1.2202083E1,-3.1421497E-2,-3.0332857E-1,-7.699653E-1,3.3476406E-1,7.738245E-1,3.4375265E-2,1.5069039E0,4.3417707E-1,-4.4184062E-1,-4.9986872E-1,9.963161E-1,-4.7957668E-1,4.2091724E-1,5.1049536E-1,3.2602143E-1,-7.4452406E-1,1.3163529E1,-1.0879537E0,-1.0315895E0,1.3190023E1,5.1168686E-1,8.185238E-1,2.9415098E-1,-4.156407E-1,1.8987656E-3,-9.35376E-2,6.91638E-1,1.2327461E1,7.908712E-2,1.1088629E1,3.3476406E-1,1.4741733E0,1.2013675E1,1.2189444E-2,9.992848E-1,5.0646394E-1,-6.048927E-3,9.9991083E-1,-1.1520734E0,6.3516897E-1,-4.08537E-1,7.495232E-1,-1.9361166E0,-6.292591E-3,3.441709E-2,-9.859193E-1,9.999638E-1,-1.9785652E-2,-2.538292E-2,-4.136546E-2,-2.790428E-2,4.5239637E-3,-2.408954E-2,-8.221684E-3,3.7457846E-2,-2.4542935E-2,4.4521047E-3,-6.2061707E-3,5.7039526E-4,1.7306594E-2,3.436903E-2,-2.9574089E-2,2.6860809E-2,1.074826E-2,8.189926E-3,-3.5786277E-3,9.493216E-3,1.2518594E-2,3.0087423E-2,1.31728435E-2,-2.0031165E-3,3.147636E-2,2.0819504E-2,1.8527482E-2,3.50017E-2,9.56888E-3,3.4402236E-2,6.028385E-3,3.5505958E-2,1.5455284E-2,2.0545673E-2,-1.8332241E-3,3.5360526E-2,1.0308922E-2,5.0131474E-3,2.526058E-2,2.865783E-2,3.287632E-2,3.4375265E-2,3.4375265E-2,3.4375265E-2,3.4375265E-2],"split_indices":[256,212,256,212,212,256,212,212,256,229,0,24,212,141,0,259,198,222,9,260,149,212,212,34,142,256,126,24,257,193,38,77,234,0,193,141,256,144,256,212,259,256,0,260,141,0,260,9,259,24,141,149,0,0,24,260,0,0,0,0,0,0,0,0,0,0,0,0,0,0,0,0,0,0,0,0,0,0,0,0,0,0,0,0,0,0,0,0,0,0,0,0,0,0,0,0,0,0,0,0,0],"split_type":[0,0,0,0,0,0,0,0,0,0,0,0,0,0,0,0,0,0,0,0,0,0,0,0,0,0,0,0,0,0,0,0,0,0,0,0,0,0,0,0,0,0,0,0,0,0,0,0,0,0,0,0,0,0,0,0,0,0,0,0,0,0,0,0,0,0,0,0,0,0,0,0,0,0,0,0,0,0,0,0,0,0,0,0,0,0,0,0,0,0,0,0,0,0,0,0,0,0,0,0,0],"sum_hessian":[1.1624E4,1.071E4,9.14E2,9.158E3,1.552E3,6.01E2,3.13E2,6.401E3,2.757E3,1.265E3,2.87E2,1.45E2,4.56E2,1.86E2,1.27E2,4.307E3,2.094E3,2.641E3,1.16E2,5.34E2,7.31E2,2.2E1,2.65E2,5.6E1,8.9E1,4.8E1,4.08E2,9.2E1,9.4E1,4.281E3,2.6E1,1.704E3,3.9E2,2E0,2.639E3,1.08E2,8E0,8.6E1,4.48E2,7.01E2,3E1,1.3E1,9E0,2.44E2,2.1E1,3E0,5.3E1,4.6E1,4.3E1,2E1,2.8E1,4.02E2,6E0,1.8E1,7.4E1,9.3E1,1E0,7.18E2,3.563E3,2.4E1,2E0,1.385E3,3.19E2,3E0,3.87E2,9E1,2.549E3,1.05E2,3E0,7E0,1E0,6E0,8E1,2E0,4.46E2,3.81E2,3.2E2,1.5E1,1.5E1,4E0,9E0,8.9E1,1.55E2,1.2E1,9E0,4.2E1,1.1E1,3.8E1,8E0,3E0,4E1,6E0,1.4E1,2.3E1,5E0,1.36E2,2.66E2,8E0,6.6E1,5.5E1,3.8E1],"tree_param":{"num_deleted":"0","num_feature":"261","num_nodes":"101","size_leaf_vector":"1"}},{"base_weights":[-2.3992725E-3,5.1772016E-1,-4.909753E-2,3.9630198E-1,7.6466876E-1,7.097742E-2,-7.64565E-2,5.905E-1,3.091111E-1,6.8315214E-1,8.708955E-1,4.478854E-2,2.094637E-1,-9.3033485E-2,-4.8843604E-2,7.5624996E-1,5.346405E-1,4.1666666E-1,2.3245281E-1,6.874317E-1,-1.0000002E-3,1.755725E-2,4.2499998E-1,3.888219E-2,6.5625E-1,2.4258552E-1,4.7272705E-2,-9.8782904E-2,-8.799181E-2,-3.1214228E-2,-6.8786524E-2,-1.3333337E-3,7.9347825E-1,-1.714286E-3,5.605442E-1,5.9591836E-1,3.4999996E-1,3.2952377E-1,1.6770184E-1,7.7468354E-1,6.152381E-1,-1.0000002E-3,1.1999999E-2,-2.4889892E-2,6.275803E-2,7.642857E-1,-1.3333337E-3,4.604651E-1,1.99095E-1,-3.541669E-2,5.3749996E-1,3.749998E-2,-9.9173255E-2,-8.832993E-2,9E-3,-3.2204386E-2,3.2E-1,-8.3084136E-2,-3.6228836E-2,1.6585365E-2,8.333333E-3,1.1803029E-2,5.6249993E-3,4.8333327E-3,1.3842104E-2,8.27826E-3,5.8333285E-4,7.2989683E-3,-1.7777783E-3,4.057553E-3,-1.0434787E-3,8.333333E-3,1.5864864E-2,1.2582524E-2,-1.3333337E-3,2.3783778E-3,-7.5119664E-4,-1.1586212E-3,1.5820052E-3,5.333333E-3,1.65E-2,-1.3333337E-3,9.756097E-3,9.882352E-3,3.4731703E-3,-1.1063834E-3,9E-3,1.5E-2,-1.3333337E-3,9E-3,-1.714286E-3,-1.6333339E-3,-1.991133E-3,-1.842785E-3,-1.2295087E-3,-6.848842E-4,2.434782E-3,1.1999999E-2,-1.3333337E-3,-1.7150947E-3,3.636363E-3,9E-3,-7.6433166E-4],"categories":[],"categories_nodes":[],"categories_segments":[],"categories_sizes":[],"default_left":[0,0,0,0,0,0,0,0,0,0,0,0,0,0,0,0,0,0,0,0,0,0,0,0,0,0,0,0,0,0,0,0,0,0,0,0,0,0,0,0,0,0,0,0,0,0,0,0,0,0,0,0,0,0,0,0,0,0,0,0,0,0,0,0,0,0,0,0,0,0,0,0,0,0,0,0,0,0,0,0,0,0,0,0,0,0,0,0,0,0,0,0,0,0,0,0,0,0,0,0,0,0,0],"id":5,"left_children":[1,3,5,7,9,11,13,15,17,19,21,23,25,27,29,31,33,35,37,39,-1,-1,41,43,45,47,49,51,53,55,57,-1,59,-1,61,63,65,67,69,71,73,-1,-1,75,77,79,-1,81,83,85,87,89,91,93,-1,95,97,99,101,-1,-1,-1,-1,-1,-1,-1,-1,-1,-1,-1,-1,-1,-1,-1,-1,-1,-1,-1,-1,-1,-1,-1,-1,-1,-1,-1,-1,-1,-1,-1,-1,-1,-1,-1,-1,-1,-1,-1,-1,-1,-1,-1,-1],"loss_changes":[2.8449435E2,2.8631592E1,3.5313972E1,1.0806526E1,2.1500397E0,7.2260857E0,4.0024986E0,1.4474182E0,3.6134071E0,6.1167145E-1,4.3190002E-2,6.038204E0,1.6914759E0,1.4983368E-1,1.1531487E0,1.5234146E0,2.5066795E0,2.0141487E0,1.6103792E0,6.761093E-1,0E0,0E0,3.6249995E-1,2.5351887E0,1.3005652E0,2.4004326E0,2.248549E0,1.3921356E-1,5.7146454E-1,6.1749065E-1,7.1432114E-1,0E0,2.7483177E-1,0E0,1.0495872E0,1.5023842E0,2.8176785E0,1.5887623E0,1.2558093E0,1.9441223E-1,1.0363312E0,0E0,0E0,8.316767E-1,2.3930717E0,2.0297623E-1,0E0,6.522217E-1,1.5726509E0,4.8862144E-1,1.0770833E0,4.4517857E-1,8.916855E-3,2.9324722E-1,0E0,5.511874E-1,5.813333E-1,7.72562E-1,4.7338533E-1,0E0,0E0,0E0,0E0,0E0,0E0,0E0,0E0,0E0,0E0,0E0,0E0,0E0,0E0,0E0,0E0,0E0,0E0,0E0,0E0,0E0,0E0,0E0,0E0,0E0,0E0,0E0,0E0,0E0,0E0,0E0,0E0,0E0,0E0,0E0,0E0,0E0,0E0,0E0,0E0,0E0,0E0,0E0,0E0],"parents":[2147483647,0,0,1,1,2,2,3,3,4,4,5,5,6,6,7,7,8,8,9,9,10,10,11,11,12,12,13,13,14,14,15,15,16,16,17,17,18,18,19,19,22,22,23,23,24,24,25,25,26,26,27,27,28,28,29,29,30,30,32,32,34,34,35,35,36,36,37,37,38,38,39,39,40,40,43,43,44,44,45,45,47,47,48,48,49,49,50,50,51,51,52,52,53,53,55,55,56,56,57,57,58,58],"right_children":[2,4,6,8,10,12,14,16,18,20,22,24,26,28,30,32,34,36,38,40,-1,-1,42,44,46,48,50,52,54,56,58,-1,60,-1,62,64,66,68,70,72,74,-1,-1,76,78,80,-1,82,84,86,88,90,92,94,-1,96,98,100,102,-1,-1,-1,-1,-1,-1,-1,-1,-1,-1,-1,-1,-1,-1,-1,-1,-1,-1,-1,-1,-1,-1,-1,-1,-1,-1,-1,-1,-1,-1,-1,-1,-1,-1,-1,-1,-1,-1,-1,-1,-1,-1,-1,-1],"split_conditions":[-1.2887447E0,5.9717315E-1,-3.6798164E-1,-1.4078157E0,7.258676E-1,3.9049193E-1,2.5650686E-2,-1.6253155E0,-7.396664E-1,1.4395243E1,9.9996793E-1,2.097305E-1,6.08845E-1,1.1694714E1,5.0306654E-1,-1.1149552E0,-2.2416296E0,9.998002E-1,-1.4796369E0,-9.367147E-1,-3.69606E-3,3.3687763E-2,-2.182745E0,2.0894185E-1,1.2327461E1,-1.1725667E0,6.3867044E-1,-4.3308175E-1,8.134296E-1,-7.441903E-2,1.1449258E1,-2.1474075E-3,9.999759E-1,-2.1474075E-3,-2.967679E-1,7.216994E-1,-1.055102E0,1.3617622E0,1.1017143E0,6.794087E-1,1.7706921E0,-2.1138E-3,3.3687763E-2,-1.0794272E0,1.3330027E1,1.1419157E0,-2.3791714E-2,-6.7293644E-1,9.466945E-1,-6.664614E-1,9.999336E-1,8.6768806E-1,2.0065442E-1,8.164369E-1,1.11505315E-2,3.8482833E-1,-5.7845842E-2,1.7380577E0,-8.595433E-1,3.3687763E-2,3.3687763E-2,2.7267652E-2,2.2920417E-2,3.2055713E-2,3.3755627E-2,2.9189115E-2,1.1973276E-2,2.6797256E-2,-1.4811897E-3,1.297691E-2,-1.570141E-3,7.0563885E-3,3.3687763E-2,3.3755627E-2,-1.2924098E-2,1.1460756E-2,-2.5710282E-3,-5.545864E-3,8.627567E-3,9.9652475E-3,3.5545323E-2,-1.0834332E-2,3.3612337E-2,3.533253E-2,1.436819E-2,-1.5928312E-3,4.008522E-3,2.2547588E-2,-6.510353E-4,8.29813E-3,-3.225441E-2,-2.2074072E-2,-4.6917323E-2,-2.677045E-2,-3.6213443E-2,-5.2798293E-3,7.7035045E-3,3.617134E-2,-2.5441188E-2,-1.7640552E-2,3.3866044E-2,3.7767734E-2,-5.0176363E-3],"split_indices":[56,212,56,99,212,212,212,9,24,256,260,193,141,258,141,193,56,260,52,142,0,0,3,212,256,56,13,82,5,18,256,0,260,0,24,11,52,103,33,259,17,0,0,202,258,259,0,160,259,24,260,27,145,66,0,161,0,259,24,0,0,0,0,0,0,0,0,0,0,0,0,0,0,0,0,0,0,0,0,0,0,0,0,0,0,0,0,0,0,0,0,0,0,0,0,0,0,0,0,0,0,0,0],"split_type":[0,0,0,0,0,0,0,0,0,0,0,0,0,0,0,0,0,0,0,0,0,0,0,0,0,0,0,0,0,0,0,0,0,0,0,0,0,0,0,0,0,0,0,0,0,0,0,0,0,0,0,0,0,0,0,0,0,0,0,0,0,0,0,0,0,0,0,0,0,0,0,0,0,0,0,0,0,0,0,0,0,0,0,0,0,0,0,0,0,0,0,0,0,0,0,0,0,0,0,0,0,0,0],"sum_hessian":[1.1711E4,9.64E2,1.0747E4,6.48E2,3.16E2,1.994E3,8.753E3,1.99E2,4.49E2,1.83E2,1.33E2,1.678E3,3.16E2,5.468E3,3.285E3,4.7E1,1.52E2,1.85E2,2.64E2,1.82E2,1E0,1.3E2,3E0,1.663E3,1.5E1,2.62E2,5.4E1,2.546E3,2.922E3,1.745E3,1.54E3,2E0,4.5E1,6E0,1.46E2,4.8E1,1.37E2,1.04E2,1.6E2,7.8E1,1.04E2,1E0,2E0,4.53E2,1.21E3,1.3E1,2E0,4.2E1,2.2E2,4.7E1,7E0,7E0,2.539E3,2.921E3,1E0,1.741E3,4E0,1.069E3,4.71E2,4E1,5E0,1.31E2,1.5E1,1.1E1,3.7E1,1.14E2,2.3E1,9.6E1,8E0,1.38E2,2.2E1,5E0,7.3E1,1.02E2,2E0,3.6E1,4.17E2,1.44E2,1.066E3,2E0,1.1E1,2E0,4E1,1.6E1,2.04E2,4.6E1,1E0,5E0,2E0,1E0,6E0,5.9E1,2.48E3,2.556E3,3.65E2,1.719E3,2.2E1,2E0,2E0,1.059E3,1E1,1E0,4.7E2],"tree_param":{"num_deleted":"0","num_feature":"261","num_nodes":"103","size_leaf_vector":"1"}},{"base_weights":[-1.5502779E-3,5.0944334E-1,-5.001888E-2,7.295393E-1,3.8134792E-1,6.1605293E-2,-7.525144E-2,6.472103E-1,8.6423355E-1,5.459302E-1,3.199143E-1,4.1180026E-2,1.6869007E-1,-9.211135E-2,-4.9709495E-2,7.616279E-1,5.7635134E-1,4.2499998E-1,1.741791E-2,6.943396E-1,4.758333E-1,2.273764E-1,4.3707314E-1,3.410222E-2,3.1707314E-1,2.136546E-1,-6.1538694E-3,-9.327816E-2,-4.8550747E-2,-3.6932595E-2,-7.436118E-2,-1.0000002E-3,7.717647E-1,6.075188E-1,2.8124997E-1,1.1999999E-2,-1.0000002E-3,7.833333E-1,3.25E-1,4.9568963E-1,-1.6000004E-3,3.047945E-1,1.29661E-1,4.9182388E-1,2.4255317E-1,9.778888E-3,1.00699276E-1,8.636361E-2,5.5499995E-1,5.4090905E-1,1.8114033E-1,2.4444443E-1,-4.561406E-2,-8.823552E-3,-9.3829386E-2,-6.250002E-2,1.1999999E-2,-4.3007016E-2,8.582066E-3,9E-3,-7.519184E-2,1.5774999E-2,8.333333E-3,8.785713E-3,1.2924528E-2,1.0199999E-2,-1.714286E-3,1.6097559E-2,-1.0000002E-3,-1.5000004E-3,9.333333E-3,8.030302E-3,1.2156862E-2,1.04117645E-2,4.7433623E-3,6.1290275E-4,4.7017536E-3,5.5999993E-3,1.1408695E-2,9.391303E-3,4.7999955E-4,1.4197946E-3,-2.1040771E-4,1.7049995E-3,6.066666E-3,-1.8666671E-3,8.249999E-3,1.3125E-2,2.3999996E-3,1.4374999E-2,1.1428567E-3,2.461538E-3,4.803571E-3,1.1999999E-2,1.1428567E-3,-1.2222227E-3,3.4999996E-3,1.1999999E-2,-1.3125006E-3,-1.965471E-3,-1.7498807E-3,-1.6769235E-3,6.8571423E-3,-3.4971142E-4,-1.1289098E-3,8.082896E-4,-1.4473689E-3,-1.616015E-3,1.5999952E-4],"categories":[],"categories_nodes":[],"categories_segments":[],"categories_sizes":[],"default_left":[0,0,0,0,0,0,0,0,0,0,0,0,0,0,0,0,0,0,0,0,0,0,0,0,0,0,0,0,0,0,0,0,0,0,0,0,0,0,0,0,0,0,0,0,0,0,0,0,0,0,0,0,0,0,0,0,0,0,0,0,0,0,0,0,0,0,0,0,0,0,0,0,0,0,0,0,0,0,0,0,0,0,0,0,0,0,0,0,0,0,0,0,0,0,0,0,0,0,0,0,0,0,0,0,0,0,0,0,0],"id":6,"left_children":[1,3,5,7,9,11,13,15,17,19,21,23,25,27,29,31,33,35,-1,37,39,41,43,45,47,49,51,53,55,57,59,-1,61,63,65,-1,-1,67,69,71,-1,73,75,77,79,81,83,85,87,89,91,93,95,97,99,101,-1,103,105,-1,107,-1,-1,-1,-1,-1,-1,-1,-1,-1,-1,-1,-1,-1,-1,-1,-1,-1,-1,-1,-1,-1,-1,-1,-1,-1,-1,-1,-1,-1,-1,-1,-1,-1,-1,-1,-1,-1,-1,-1,-1,-1,-1,-1,-1,-1,-1,-1,-1],"loss_changes":[2.8759683E2,2.8084198E1,2.987711E1,3.532608E0,6.2761E0,4.2712865E0,3.7208405E0,1.4500885E0,3.0761719E-2,1.458931E0,4.963661E0,3.1994548E0,2.4620495E0,2.6028442E-1,1.0813885E0,7.461395E-1,1.1903763E0,3.6249995E-1,0E0,1.4874687E0,1.3640728E0,1.9500589E0,2.06398E0,2.5972743E0,2.2026396E0,2.5514898E0,6.539127E-1,2.353363E-1,1.2859602E0,6.276915E-1,5.451889E-1,0E0,1.8402863E-1,5.822029E-1,1.3868036E0,0E0,0E0,7.943077E-1,7.149999E-1,9.811344E-1,0E0,2.007162E0,1.2245876E0,2.487896E0,2.320598E0,1.4619689E0,1.3171487E0,1.3278258E0,8.02125E-1,1.8516631E0,7.5201464E-1,5.6507933E-1,2.0557016E-1,1.2151655E0,1.333046E-1,1.2055302E0,0E0,6.85637E-1,6.9352067E-1,0E0,5.4798603E-1,0E0,0E0,0E0,0E0,0E0,0E0,0E0,0E0,0E0,0E0,0E0,0E0,0E0,0E0,0E0,0E0,0E0,0E0,0E0,0E0,0E0,0E0,0E0,0E0,0E0,0E0,0E0,0E0,0E0,0E0,0E0,0E0,0E0,0E0,0E0,0E0,0E0,0E0,0E0,0E0,0E0,0E0,0E0,0E0,0E0,0E0,0E0,0E0],"parents":[2147483647,0,0,1,1,2,2,3,3,4,4,5,5,6,6,7,7,8,8,9,9,10,10,11,11,12,12,13,13,14,14,15,15,16,16,17,17,19,19,20,20,21,21,22,22,23,23,24,24,25,25,26,26,27,27,28,28,29,29,30,30,32,32,33,33,34,34,37,37,38,38,39,39,41,41,42,42,43,43,44,44,45,45,46,46,47,47,48,48,49,49,50,50,51,51,52,52,53,53,54,54,55,55,57,57,58,58,60,60],"right_children":[2,4,6,8,10,12,14,16,18,20,22,24,26,28,30,32,34,36,-1,38,40,42,44,46,48,50,52,54,56,58,60,-1,62,64,66,-1,-1,68,70,72,-1,74,76,78,80,82,84,86,88,90,92,94,96,98,100,102,-1,104,106,-1,108,-1,-1,-1,-1,-1,-1,-1,-1,-1,-1,-1,-1,-1,-1,-1,-1,-1,-1,-1,-1,-1,-1,-1,-1,-1,-1,-1,-1,-1,-1,-1,-1,-1,-1,-1,-1,-1,-1,-1,-1,-1,-1,-1,-1,-1,-1,-1,-1],"split_conditions":[-1.2461084E0,-1.9405335E0,-3.6798164E-1,7.258676E-1,-8.2109773E-1,3.859052E-1,1.9373326E-2,-1.9818918E0,1.3618131E1,9.466945E-1,1.3852983E0,-4.4969746E-1,5.928339E-1,1.3373412E0,5.2777E-1,1.7098998E0,2.071279E0,3.9735907E-1,3.301401E-2,9.99919E-1,1.2423632E0,4.4105902E-1,1.3489926E1,1.2677492E0,1.2667708E-1,-1.1725667E0,-9.283546E-1,-8.4237564E-1,4.586363E-1,1.1528267E1,-8.595433E-1,-3.6221312E-3,8.863944E-1,1.3476593E0,-2.3929968E0,3.3202533E-2,-2.2487773E-2,-1.0909007E0,9.999212E-1,5.9717315E-1,-3.3529853E-3,-1.3398641E0,4.2944148E-1,3.3476406E-1,-6.513288E-1,-8.67768E-1,6.2612396E-1,-1.4848016E-1,-1.5619202E-1,1.2943798E1,4.1951296E-1,5.786689E-1,9.9988973E-1,-4.332042E-1,1.0138769E1,9.023591E-1,1.0778007E-2,-8.2574147E-1,1.1776498E1,3.7012387E-2,1.1761905E1,3.301401E-2,2.4904707E-2,2.8585596E-2,3.305901E-2,3.3014007E-2,-3.6964226E-3,3.308052E-2,-1.4826755E-2,-1.5751456E-3,3.3224754E-2,2.96331E-2,3.308052E-2,1.4460604E-2,1.6572902E-2,5.2921516E-3,1.9300869E-2,2.088954E-2,3.3316076E-2,2.881679E-2,5.523231E-3,7.561905E-3,-3.7097972E-4,1.2101439E-2,1.9372156E-2,-3.8580247E-3,2.1340523E-2,3.345485E-2,1.1856441E-2,3.3017553E-2,8.769398E-3,8.058727E-3,2.212541E-2,3.4602165E-2,3.582382E-3,-1.818928E-3,1.046196E-2,4.1133612E-2,-2.3878505E-2,-4.7715228E-2,-2.4349684E-2,-2.403681E-2,7.691803E-3,-3.1195257E-3,-1.1163108E-2,5.0415588E-3,-3.2917403E-3,-1.6342375E-2,2.6911916E-3],"split_indices":[56,56,56,212,24,212,212,202,256,259,129,170,141,259,141,0,129,0,0,260,129,8,256,259,89,56,101,43,75,256,24,0,141,106,50,0,0,149,260,212,0,3,212,212,24,56,141,149,8,256,41,10,260,4,256,219,0,228,256,0,256,0,0,0,0,0,0,0,0,0,0,0,0,0,0,0,0,0,0,0,0,0,0,0,0,0,0,0,0,0,0,0,0,0,0,0,0,0,0,0,0,0,0,0,0,0,0,0,0],"split_type":[0,0,0,0,0,0,0,0,0,0,0,0,0,0,0,0,0,0,0,0,0,0,0,0,0,0,0,0,0,0,0,0,0,0,0,0,0,0,0,0,0,0,0,0,0,0,0,0,0,0,0,0,0,0,0,0,0,0,0,0,0,0,0,0,0,0,0,0,0,0,0,0,0,0,0,0,0,0,0,0,0,0,0,0,0,0,0,0,0,0,0,0,0,0,0,0,0,0,0,0,0,0,0,0,0,0,0,0,0],"sum_hessian":[1.161E4,1.005E3,1.0605E4,3.68E2,6.37E2,1.955E3,8.65E3,2.32E2,1.36E2,1.71E2,4.66E2,1.643E3,3.12E2,5.209E3,3.441E3,8.5E1,1.47E2,3E0,1.33E2,5.2E1,1.19E2,2.62E2,2.04E2,1.603E3,4E1,2.48E2,6.4E1,5.072E3,1.37E2,2.268E3,1.173E3,1E0,8.4E1,1.32E2,1.5E1,2E0,1E0,4.1E1,1.1E1,1.15E2,4E0,1.45E2,1.17E2,1.58E2,4.6E1,1.175E3,4.28E2,2.1E1,1.9E1,2.1E1,2.27E2,8E0,5.6E1,3.3E1,5.039E3,1.35E2,2E0,2.001E3,2.67E2,1E0,1.172E3,7.9E1,5E0,2.7E1,1.05E2,9E0,6E0,4E1,1E0,3E0,8E0,6.5E1,5E1,3.3E1,1.12E2,6.1E1,5.6E1,4.4E1,1.14E2,2.2E1,2.4E1,2.92E2,8.83E2,3.99E2,2.9E1,1.4E1,7E0,1.5E1,4E0,1.5E1,6E0,1.16E2,1.11E2,2E0,6E0,5.3E1,3E0,2E0,3.1E1,2.953E3,2.086E3,1.29E2,6E0,6.91E2,1.31E3,1.92E2,7.5E1,1.098E3,7.4E1],"tree_param":{"num_deleted":"0","num_feature":"261","num_nodes":"109","size_leaf_vector":"1"}},{"base_weights":[-5.27443E-3,-4.8663475E-2,5.0010806E-1,5.881514E-2,-7.48298E-2,3.8201317E-1,7.2218746E-1,2.6079997E-1,4.6072483E-2,-9.233632E-2,-5.265362E-2,4.684385E-1,2.957516E-1,6.2528086E-1,8.3776224E-1,1.2054792E-1,4.4905657E-1,9.2977226E-2,-2.5614991E-3,-3.5454568E-2,-9.3639076E-2,-3.282332E-2,-7.494447E-2,5.395833E-1,4.006329E-1,4.0521738E-1,2.2864582E-1,6.335227E-1,-1.3333337E-3,8.443662E-1,-1.0000002E-3,3.333333E-1,3.3962242E-2,2.8108105E-1,7.8823525E-1,8.665995E-2,5.0666666E-1,4.0624997E-1,-9.365268E-3,2.0999998E-1,-5.9405964E-2,-9.38465E-2,1.7499998E-1,4.2499998E-1,-3.371233E-2,-7.6493606E-2,2.0999998E-1,7.15625E-1,4.8495573E-1,6.275862E-1,3.4692305E-1,6.1249995E-1,3.467391E-1,1.1184208E-1,3.0256408E-1,4.2608693E-1,6.603896E-1,1.7491227E-2,6.965517E-1,1.090909E-2,1.8181814E-3,6.4E-3,8.1632184E-5,-5.333338E-4,9.391303E-3,5.333333E-3,1.68E-2,3.781094E-3,1.2145541E-3,1.1999999E-2,-1.3333337E-3,-1.714286E-3,1.4199999E-2,2.7649722E-4,-1.1575568E-3,-1.6666669E-3,1.0399999E-2,-1.3737378E-3,5.333333E-3,-1.9721186E-3,-1.7193968E-3,-1.3333337E-3,9E-3,1.1999999E-2,-1.0000002E-3,2.4374994E-3,-7.23896E-4,-1.6284353E-3,-1.18644544E-4,8.4999995E-3,1.1428567E-3,3.4999996E-3,1.5310344E-2,4.4444398E-4,1.0399999E-2,1.3071428E-2,-1.0000002E-3,8.018867E-3,2.0799995E-3,1.3894737E-2,4.9999994E-3,-4.285719E-4,8.151898E-3,8.166666E-3,1.1076918E-3,1.1466666E-2,5.203883E-3,-1.6666669E-3,1.1444443E-2,1.4383838E-2,1.0892856E-2,3.4999996E-3,1.5E-2],"categories":[],"categories_nodes":[],"categories_segments":[],"categories_sizes":[],"default_left":[0,0,0,0,0,0,0,0,0,0,0,0,0,0,0,0,0,0,0,0,0,0,0,0,0,0,0,0,0,0,0,0,0,0,0,0,0,0,0,0,0,0,0,0,0,0,0,0,0,0,0,0,0,0,0,0,0,0,0,0,0,0,0,0,0,0,0,0,0,0,0,0,0,0,0,0,0,0,0,0,0,0,0,0,0,0,0,0,0,0,0,0,0,0,0,0,0,0,0,0,0,0,0,0,0,0,0,0,0,0,0,0,0],"id":7,"left_children":[1,3,5,7,9,11,13,15,17,19,21,23,25,27,29,31,33,35,37,39,41,43,45,47,49,51,53,55,-1,57,-1,59,61,63,65,67,69,71,73,75,77,79,81,83,85,87,89,91,93,95,97,99,101,103,105,107,109,-1,111,-1,-1,-1,-1,-1,-1,-1,-1,-1,-1,-1,-1,-1,-1,-1,-1,-1,-1,-1,-1,-1,-1,-1,-1,-1,-1,-1,-1,-1,-1,-1,-1,-1,-1,-1,-1,-1,-1,-1,-1,-1,-1,-1,-1,-1,-1,-1,-1,-1,-1,-1,-1,-1,-1],"loss_changes":[2.5653882E2,3.030434E1,2.3983582E1,5.418752E0,3.3591347E0,4.379303E0,3.0601501E0,3.2462893E0,4.5306306E0,3.5541153E-1,1.6883211E0,1.2358551E0,2.155161E0,1.0573578E0,8.8059235E-1,1.3336434E0,2.798049E0,2.5982275E0,2.7185085E0,6.59163E-1,2.801056E-1,8.3893037E-1,8.106146E-1,1.0377655E0,1.7082386E0,1.1815968E0,1.6238756E0,6.994934E-1,0E0,2.4612427E-2,0E0,1.030303E0,4.5168433E-1,2.158728E0,2.3498058E-1,2.6358795E0,8.4266686E-1,2.4518034E0,1.0819374E0,9.5266664E-1,3.2396835E-1,1.6880417E-1,2.9583335E-1,3.6249995E-1,7.857766E-1,6.2231636E-1,3.043572E-1,7.2916985E-1,1.8208675E0,5.4328823E-1,1.6642628E0,5.4177666E-1,2.0700064E0,1.2495602E0,1.1931009E0,1.759903E0,6.5644836E-1,0E0,6.771555E-1,0E0,0E0,0E0,0E0,0E0,0E0,0E0,0E0,0E0,0E0,0E0,0E0,0E0,0E0,0E0,0E0,0E0,0E0,0E0,0E0,0E0,0E0,0E0,0E0,0E0,0E0,0E0,0E0,0E0,0E0,0E0,0E0,0E0,0E0,0E0,0E0,0E0,0E0,0E0,0E0,0E0,0E0,0E0,0E0,0E0,0E0,0E0,0E0,0E0,0E0,0E0,0E0,0E0,0E0],"parents":[2147483647,0,0,1,1,2,2,3,3,4,4,5,5,6,6,7,7,8,8,9,9,10,10,11,11,12,12,13,13,14,14,15,15,16,16,17,17,18,18,19,19,20,20,21,21,22,22,23,23,24,24,25,25,26,26,27,27,29,29,31,31,32,32,33,33,34,34,35,35,36,36,37,37,38,38,39,39,40,40,41,41,42,42,43,43,44,44,45,45,46,46,47,47,48,48,49,49,50,50,51,51,52,52,53,53,54,54,55,55,56,56,58,58],"right_children":[2,4,6,8,10,12,14,16,18,20,22,24,26,28,30,32,34,36,38,40,42,44,46,48,50,52,54,56,-1,58,-1,60,62,64,66,68,70,72,74,76,78,80,82,84,86,88,90,92,94,96,98,100,102,104,106,108,110,-1,112,-1,-1,-1,-1,-1,-1,-1,-1,-1,-1,-1,-1,-1,-1,-1,-1,-1,-1,-1,-1,-1,-1,-1,-1,-1,-1,-1,-1,-1,-1,-1,-1,-1,-1,-1,-1,-1,-1,-1,-1,-1,-1,-1,-1,-1,-1,-1,-1,-1,-1,-1,-1,-1,-1],"split_conditions":[1.28456955E1,-3.5353407E-1,1.3699367E1,9.963161E-1,1.27128935E1,-1.6404072E0,1.4182045E1,2.1960554E-1,-6.772134E-1,-4.7091374E-1,5.114805E-1,-1.9361166E0,-7.699653E-1,-1.019453E0,9.999759E-1,-6.3687754E-1,-4.2096207E-1,6.8856305E-1,3.4179324E-1,1.1917063E1,8.2413733E-1,-3.615299E-1,1.7380577E0,1.5266562E0,4.6033072E-1,5.608004E-1,1.4246274E0,6.824205E-1,-1.453022E-2,9.9995196E-1,-3.2454298E-3,-3.0332857E-1,-1.0494872E-1,9.072916E0,2.8246295E-1,5.5866927E-1,5.286997E-1,-4.1710353E-1,9.9977714E-1,-5.2457404E-1,2.6745426E-2,1.0175745E1,9.262443E-1,7.5036906E-2,-8.461722E-1,1.1726504E1,1.5868387E-1,1.5336993E0,7.0496106E-1,1.2001652E1,1.3549649E1,-8.595433E-1,9.993193E-1,7.106335E-1,9.999172E-1,-5.9373885E-1,-6.828472E-1,3.2353725E-2,9.999547E-1,1.1090455E-2,3.1182531E-2,7.2843167E-3,4.27692E-3,1.2322282E-2,3.2965813E-2,3.1223295E-5,3.39077E-2,1.777947E-2,8.026165E-3,2.9215703E-2,-9.428024E-3,-6.0482407E-3,3.0398311E-2,1.6716225E-3,-5.7592415E-3,-1.49237625E-2,1.089716E-2,-2.0923642E-2,4.2397687E-3,-4.5765188E-2,-2.4295818E-2,-5.4717902E-2,1.2443542E-4,1.475399E-2,-3.7207127E-2,1.0427279E-2,-6.728439E-3,-1.6678097E-2,3.876965E-4,1.0326366E-2,3.5977058E-2,1.1086063E-2,3.1618595E-2,3.1997032E-2,2.7344478E-2,3.250551E-2,-4.055338E-2,3.13622E-2,2.3934808E-2,3.2580994E-2,6.08942E-3,2.384483E-3,3.2102115E-2,1.922562E-2,4.508874E-3,1.1355418E-2,2.0342736E-2,-4.5648575E-4,3.2353725E-2,3.2354277E-2,3.2353725E-2,1.402792E-2,3.2353725E-2],"split_indices":[256,56,256,260,258,56,256,175,56,24,141,149,24,145,260,56,145,141,141,258,128,151,259,34,8,141,216,259,0,260,0,0,15,257,53,141,8,0,260,0,10,256,1,0,24,256,202,59,141,257,256,24,260,259,260,24,24,0,260,0,0,0,0,0,0,0,0,0,0,0,0,0,0,0,0,0,0,0,0,0,0,0,0,0,0,0,0,0,0,0,0,0,0,0,0,0,0,0,0,0,0,0,0,0,0,0,0,0,0,0,0,0,0],"split_type":[0,0,0,0,0,0,0,0,0,0,0,0,0,0,0,0,0,0,0,0,0,0,0,0,0,0,0,0,0,0,0,0,0,0,0,0,0,0,0,0,0,0,0,0,0,0,0,0,0,0,0,0,0,0,0,0,0,0,0,0,0,0,0,0,0,0,0,0,0,0,0,0,0,0,0,0,0,0,0,0,0,0,0,0,0,0,0,0,0,0,0,0,0,0,0,0,0,0,0,0,0,0,0,0,0,0,0,0,0,0,0,0,0],"sum_hessian":[1.1697E4,1.0773E4,9.24E2,2.109E3,8.664E3,6.05E2,3.19E2,1.24E2,1.985E3,4.84E3,3.824E3,3E2,3.05E2,1.77E2,1.42E2,7.2E1,5.2E1,1.01E3,9.75E2,1.09E2,4.731E3,2.025E3,1.799E3,1.43E2,1.57E2,1.14E2,1.91E2,1.75E2,2E0,1.41E2,1E0,2E1,5.2E1,3.6E1,1.6E1,9.96E2,1.4E1,1.5E1,9.6E2,9E0,1E2,4.728E3,3E0,3E0,2.022E3,1.79E3,9E0,3.1E1,1.12E2,2.8E1,1.29E2,2.3E1,9.1E1,7.5E1,1.16E2,2.2E1,1.53E2,1.13E2,2.8E1,1E1,1E1,4E0,4.8E1,1.4E1,2.2E1,2E0,1.4E1,2E2,7.96E2,1.2E1,2E0,6E0,9E0,6.5E2,3.1E2,5E0,4E0,9.8E1,2E0,2.94E3,1.788E3,2E0,1E0,2E0,1E0,3.1E1,1.991E3,1.673E3,1.17E2,3E0,6E0,3E0,2.8E1,8E0,1.04E2,2.7E1,1E0,1.05E2,2.4E1,1.8E1,5E0,1.3E1,7.8E1,1.1E1,6.4E1,1.4E1,1.02E2,5E0,1.7E1,9.8E1,5.5E1,3E0,2.5E1],"tree_param":{"num_deleted":"0","num_feature":"261","num_nodes":"113","size_leaf_vector":"1"}},{"base_weights":[-3.178571E-3,4.805835E-1,-4.8206784E-2,3.9493504E-1,7.7155554E-1,7.6972134E-2,-7.229792E-2,2.4896263E-1,4.60566E-1,8.611111E-1,6.5099996E-1,7.198828E-2,6.4E-1,-9.094086E-2,-5.008562E-2,4.1617644E-1,1.8218389E-1,6.285714E-1,4.3105724E-1,-1.0000002E-3,8.688E-1,7.2839504E-1,3.0499998E-1,1.1111109E-1,2.939022E-2,1.65E-2,-1.5000004E-3,-5.524196E-2,-9.283707E-2,-3.154156E-2,-7.275695E-2,4.8541665E-1,2.3809521E-1,6.285714E-1,1.6249998E-1,6.6617644E-1,3.0999997E-1,5.07109E-1,3.6352456E-1,1.7675212E-2,5.7777774E-1,7.3875E-1,-1.0000002E-3,5.7777774E-1,7.499998E-2,1.8595235E-1,4.427964E-2,2.6382977E-1,1.5116255E-2,-1.9816516E-3,-2.0714309E-2,-9.304595E-2,8.333331E-2,-4.0092904E-2,2.1337556E-2,-7.5247005E-2,1.8333331E-1,3.636363E-3,1.1210526E-2,8.166666E-3,1.9999956E-4,5.333333E-3,1.4399999E-2,3.6538457E-3,-1.8461543E-3,1.7099999E-2,1.1510204E-2,-1.5000004E-3,9.714285E-3,1.0399999E-2,1.1428567E-3,8.630768E-3,5.6695645E-3,-1.3333337E-3,1.542857E-2,1.1058822E-2,1.5531248E-2,1.3249999E-2,-1.0000002E-3,4.9999994E-3,-1.714286E-3,9.909091E-3,3.3684205E-3,1.4715671E-4,2.1494247E-3,7.7575753E-3,-5.333338E-4,7.1913534E-4,-1.826772E-3,-6.8115984E-4,1.1999999E-2,-1.7043103E-3,-1.9633626E-3,-1.6000004E-3,9E-3,-8.557949E-4,2.4374994E-3,9.701445E-5,2.2978717E-3,-1.7269483E-3,-7.6886837E-4,8.333333E-3,1.2307687E-3],"categories":[],"categories_nodes":[],"categories_segments":[],"categories_sizes":[],"default_left":[0,0,0,0,0,0,0,0,0,0,0,0,0,0,0,0,0,0,0,0,0,0,0,0,0,0,0,0,0,0,0,0,0,0,0,0,0,0,0,0,0,0,0,0,0,0,0,0,0,0,0,0,0,0,0,0,0,0,0,0,0,0,0,0,0,0,0,0,0,0,0,0,0,0,0,0,0,0,0,0,0,0,0,0,0,0,0,0,0,0,0,0,0,0,0,0,0,0,0,0,0,0,0],"id":8,"left_children":[1,3,5,7,9,11,13,15,17,19,21,23,25,27,29,31,33,35,37,-1,39,41,43,45,47,-1,-1,49,51,53,55,57,59,61,63,65,67,69,71,-1,73,75,-1,77,79,81,83,85,87,-1,89,91,93,95,97,99,101,-1,-1,-1,-1,-1,-1,-1,-1,-1,-1,-1,-1,-1,-1,-1,-1,-1,-1,-1,-1,-1,-1,-1,-1,-1,-1,-1,-1,-1,-1,-1,-1,-1,-1,-1,-1,-1,-1,-1,-1,-1,-1,-1,-1,-1,-1],"loss_changes":[2.5427365E2,2.4467072E1,3.221026E1,7.2621765E0,1.8685913E0,4.7915554E0,3.7041435E0,2.615264E0,2.3565903E0,9.2611694E-1,2.4557114E0,2.8465443E0,2.046E0,3.2440186E-1,1.7167959E0,7.2289085E-1,1.4267349E0,7.1593666E-1,2.1473846E0,0E0,3.363037E-2,6.898155E-1,1.2114443E0,4.448325E0,2.740045E0,0E0,0E0,3.7334865E-1,1.7779922E-1,1.0187294E0,1.1864843E0,9.926386E-1,8.1135714E-1,3.961897E-2,8.812499E-1,6.7209244E-1,7.1292865E-1,1.194191E0,1.20607E0,0E0,1.174603E0,1.3267899E-1,0E0,5.118058E-1,3.589286E-1,2.195469E0,1.100455E0,1.704026E0,1.7204604E0,0E0,1.180001E0,1.7677689E-1,3.9533332E-1,8.517368E-1,4.8376974E-1,7.410307E-1,4.8589748E-1,0E0,0E0,0E0,0E0,0E0,0E0,0E0,0E0,0E0,0E0,0E0,0E0,0E0,0E0,0E0,0E0,0E0,0E0,0E0,0E0,0E0,0E0,0E0,0E0,0E0,0E0,0E0,0E0,0E0,0E0,0E0,0E0,0E0,0E0,0E0,0E0,0E0,0E0,0E0,0E0,0E0,0E0,0E0,0E0,0E0,0E0],"parents":[2147483647,0,0,1,1,2,2,3,3,4,4,5,5,6,6,7,7,8,8,9,9,10,10,11,11,12,12,13,13,14,14,15,15,16,16,17,17,18,18,20,20,21,21,22,22,23,23,24,24,27,27,28,28,29,29,30,30,31,31,32,32,33,33,34,34,35,35,36,36,37,37,38,38,40,40,41,41,43,43,44,44,45,45,46,46,47,47,48,48,50,50,51,51,52,52,53,53,54,54,55,55,56,56],"right_children":[2,4,6,8,10,12,14,16,18,20,22,24,26,28,30,32,34,36,38,-1,40,42,44,46,48,-1,-1,50,52,54,56,58,60,62,64,66,68,70,72,-1,74,76,-1,78,80,82,84,86,88,-1,90,92,94,96,98,100,102,-1,-1,-1,-1,-1,-1,-1,-1,-1,-1,-1,-1,-1,-1,-1,-1,-1,-1,-1,-1,-1,-1,-1,-1,-1,-1,-1,-1,-1,-1,-1,-1,-1,-1,-1,-1,-1,-1,-1,-1,-1,-1,-1,-1,-1,-1],"split_conditions":[-1.2461084E0,1.3929157E1,-4.4632047E-1,1.3021699E1,-8.694642E-1,2.097305E-1,1.27128935E1,-7.396664E-1,9.9979424E-1,8.502619E-1,-1.6253155E0,-6.9529665E-1,1.430261E0,-2.3267257E-1,5.1969177E-1,9.9991083E-1,-1.4279819E0,-8.468415E-1,-1.3758941E0,-9.461632E-3,9.999638E-1,9.999794E-1,1.542348E0,5.8574724E-1,3.7326896E-1,3.162348E-2,-1.27018355E-2,-1.8700866E-1,8.2413733E-1,1.1481434E1,1.63414E0,1.2618691E1,-4.3223345E-1,-4.9267143E-1,1.1382686E0,6.5492785E-1,-6.5611994E-1,2.685995E0,1.3321195E1,3.1706657E-2,-1.6502813E0,6.794087E-1,-7.743835E-6,-9.412132E-1,-8.13463E-1,-1.1351599E0,1.2454482E1,-3.3449665E-2,-5.5691606E-1,-1.5959682E-2,1.445802E-1,5.532669E-1,-4.7120392E-1,4.6123415E-1,3.117841E-1,1.1528267E1,1.414512E1,3.391345E-2,3.250688E-2,2.2757914E-2,2.9364196E-3,3.4299143E-2,3.4383237E-2,1.3916949E-2,-2.1523929E-3,3.1888388E-2,3.177084E-2,-2.1997757E-2,2.4359034E-2,2.965355E-2,1.4383335E-2,3.1768803E-2,2.8826877E-2,-3.3788872E-3,3.1706657E-2,3.1706657E-2,3.1706657E-2,2.81637E-2,-1.4239616E-2,3.1706657E-2,-8.603668E-4,3.1720314E-2,1.6540209E-2,9.054907E-4,3.663459E-3,2.2919055E-2,-5.9377856E-4,4.135329E-3,-6.7581693E-3,-4.39055E-3,4.0853385E-2,-2.55444E-2,-4.635395E-2,-3.976097E-2,1.2195587E-4,-8.960283E-3,5.5093924E-3,8.813793E-4,1.0940822E-2,-1.788256E-2,-3.668893E-3,3.525751E-2,8.031135E-3],"split_indices":[56,256,56,256,24,193,258,24,260,72,9,56,259,170,141,260,202,86,9,0,260,260,33,141,141,0,0,142,128,256,259,256,193,193,259,113,101,15,256,0,5,259,0,9,24,56,256,101,9,0,0,203,15,75,130,256,258,0,0,0,0,0,0,0,0,0,0,0,0,0,0,0,0,0,0,0,0,0,0,0,0,0,0,0,0,0,0,0,0,0,0,0,0,0,0,0,0,0,0,0,0,0,0],"split_type":[0,0,0,0,0,0,0,0,0,0,0,0,0,0,0,0,0,0,0,0,0,0,0,0,0,0,0,0,0,0,0,0,0,0,0,0,0,0,0,0,0,0,0,0,0,0,0,0,0,0,0,0,0,0,0,0,0,0,0,0,0,0,0,0,0,0,0,0,0,0,0,0,0,0,0,0,0,0,0,0,0,0,0,0,0,0,0,0,0,0,0,0,0,0,0,0,0,0,0,0,0,0,0],"sum_hessian":[1.1671E4,9.93E2,1.0678E4,7.69E2,2.24E2,1.723E3,8.955E3,2.4E2,5.29E2,1.25E2,9.9E1,1.709E3,1.4E1,4.867E3,4.088E3,6.7E1,1.73E2,7.6E1,4.53E2,1E0,1.24E2,8E1,1.9E1,8.9E2,8.19E2,1.1E1,3E0,2.47E2,4.62E3,2.25E3,1.838E3,4.7E1,2E1,6E0,1.67E2,6.7E1,9E0,2.1E2,2.43E2,1.16E2,8E0,7.9E1,1E0,8E0,1.1E1,4.19E2,4.71E2,4.6E1,7.73E2,1.08E2,1.39E2,4.615E3,5E0,1.937E3,3.13E2,1.821E3,1.7E1,1E1,3.7E1,1.1E1,9E0,2E0,4E0,1.55E2,1.2E1,1.9E1,4.8E1,3E0,6E0,2.04E2,6E0,1.29E2,1.14E2,2E0,6E0,1.6E1,6.3E1,7E0,1E0,5E0,6E0,2.1E1,3.98E2,2.98E2,1.73E2,3.2E1,1.4E1,6.47E2,1.26E2,1.37E2,2E0,1.832E3,2.783E3,4E0,1E0,1.906E3,3.1E1,2.67E2,4.6E1,1.398E3,4.23E2,5E0,1.2E1],"tree_param":{"num_deleted":"0","num_feature":"261","num_nodes":"103","size_leaf_vector":"1"}},{"base_weights":[-4.0244455E-3,4.610505E-1,-4.8206408E-2,3.6524546E-1,7.7330506E-1,6.145619E-2,-7.307695E-2,2.2024289E-1,4.3238634E-1,8.433121E-1,6.2624997E-1,5.8107395E-2,7.1E-1,-9.16788E-2,-4.9713567E-2,5.1666665E-1,1.9608693E-1,5.416666E-1,3.8552275E-1,1.7223684E-2,2.4999999E-1,-1.5000004E-3,6.545454E-1,1.0583056E-1,1.6618887E-2,-1.0000002E-3,1.5999999E-2,-8.0390945E-2,-9.718617E-2,-3.3178385E-2,-7.620341E-2,7.416667E-1,5.7142835E-2,3.5636362E-1,1.4488634E-1,-1.6666669E-3,5.629139E-1,4.9784172E-1,3.174468E-1,-1.5000004E-3,1.1999999E-2,2.0999998E-1,7.1029407E-1,1.7362107E-1,4.827584E-2,2.0923075E-1,3.8656935E-3,-8.1009485E-2,9E-3,-9.749151E-2,8.333331E-2,-3.9346613E-2,1.8039191E-2,-8.7488934E-2,-3.9541572E-2,-1.0000002E-3,1.6363636E-2,9E-3,-1.6666669E-3,1.9999956E-4,8.478261E-3,4.0517235E-3,6.557372E-4,1.5466666E-2,1.0715328E-2,1.0131386E-2,-1.3333337E-3,7.241757E-3,3.2222217E-3,-1.6000004E-3,8.333333E-3,1.4857141E-2,4.9999994E-3,1.3777777E-2,3.2371634E-3,3.3437496E-3,6.0930185E-4,6.3043474E-3,-9.0000045E-4,-8.70493E-5,3.761904E-3,-1.5233252E-3,-1.8968063E-3,-1.9558189E-3,-6.2500045E-4,-1.6000004E-3,9E-3,-1.1236337E-3,-3.5281433E-4,-5.1533786E-4,1.8924726E-3,5.333333E-3,-1.7671115E-3,-1.0061733E-3,1.9230765E-3],"categories":[],"categories_nodes":[],"categories_segments":[],"categories_sizes":[],"default_left":[0,0,0,0,0,0,0,0,0,0,0,0,0,0,0,0,0,0,0,0,0,0,0,0,0,0,0,0,0,0,0,0,0,0,0,0,0,0,0,0,0,0,0,0,0,0,0,0,0,0,0,0,0,0,0,0,0,0,0,0,0,0,0,0,0,0,0,0,0,0,0,0,0,0,0,0,0,0,0,0,0,0,0,0,0,0,0,0,0,0,0,0,0,0,0],"id":9,"left_children":[1,3,5,7,9,11,13,15,17,19,21,23,25,27,29,31,33,35,37,-1,39,-1,41,43,45,-1,-1,47,49,51,53,55,57,59,61,-1,63,65,67,-1,-1,69,71,73,75,77,79,81,-1,83,85,87,89,91,93,-1,-1,-1,-1,-1,-1,-1,-1,-1,-1,-1,-1,-1,-1,-1,-1,-1,-1,-1,-1,-1,-1,-1,-1,-1,-1,-1,-1,-1,-1,-1,-1,-1,-1,-1,-1,-1,-1,-1,-1],"loss_changes":[2.3897403E2,2.9902359E1,2.8971869E1,7.440117E0,1.901474E0,4.2242374E0,3.7582245E0,1.6673069E0,2.4952087E0,1.4494858E0,1.636467E0,3.8690681E0,7.2400045E-1,2.9176712E-1,1.6794472E0,1.8186913E0,1.8358088E0,2.118515E0,2.6940002E0,0E0,7.2749996E-1,0E0,1.7591133E0,3.5382328E0,2.5710592E0,0E0,0E0,5.567732E-1,1.8637657E-1,7.481806E-1,6.068182E-1,7.6780224E-1,4.2380953E-1,1.282578E0,1.131747E0,0E0,4.482422E-1,7.185936E-1,1.5817299E0,0E0,0E0,6.326668E-1,8.335037E-1,2.4159555E0,1.0390337E0,1.7656138E0,1.4891076E0,9.894848E-2,0E0,6.0993195E-2,3.9533332E-1,7.70777E-1,8.579287E-1,3.6946964E-1,5.147421E-1,0E0,0E0,0E0,0E0,0E0,0E0,0E0,0E0,0E0,0E0,0E0,0E0,0E0,0E0,0E0,0E0,0E0,0E0,0E0,0E0,0E0,0E0,0E0,0E0,0E0,0E0,0E0,0E0,0E0,0E0,0E0,0E0,0E0,0E0,0E0,0E0,0E0,0E0,0E0,0E0],"parents":[2147483647,0,0,1,1,2,2,3,3,4,4,5,5,6,6,7,7,8,8,9,9,10,10,11,11,12,12,13,13,14,14,15,15,16,16,17,17,18,18,20,20,22,22,23,23,24,24,27,27,28,28,29,29,30,30,31,31,32,32,33,33,34,34,36,36,37,37,38,38,41,41,42,42,43,43,44,44,45,45,46,46,47,47,49,49,50,50,51,51,52,52,53,53,54,54],"right_children":[2,4,6,8,10,12,14,16,18,20,22,24,26,28,30,32,34,36,38,-1,40,-1,42,44,46,-1,-1,48,50,52,54,56,58,60,62,-1,64,66,68,-1,-1,70,72,74,76,78,80,82,-1,84,86,88,90,92,94,-1,-1,-1,-1,-1,-1,-1,-1,-1,-1,-1,-1,-1,-1,-1,-1,-1,-1,-1,-1,-1,-1,-1,-1,-1,-1,-1,-1,-1,-1,-1,-1,-1,-1,-1,-1,-1,-1,-1,-1],"split_conditions":[-1.2461084E0,1.3929157E1,-3.6798164E-1,1.3021699E1,9.9994653E-1,2.4525619E-1,1.27128935E1,-9.8025924E-1,-1.9405335E0,-8.083664E-1,9.9994826E-1,-6.9529665E-1,-7.455906E-1,3.5257453E-1,5.2777E-1,9.6963966E-1,-7.699653E-1,-2.1102095E0,9.99919E-1,3.107252E-2,-4.5640892E-1,-6.120758E-3,1.7098998E0,5.8574724E-1,3.617365E-1,-1.1558214E-1,3.0991001E-2,9.0533245E-1,8.2413733E-1,1.1528267E1,1.1449258E1,3.407652E-1,1.3781666E0,1.2561146E1,4.6033072E-1,-6.792641E-4,-1.0315895E0,-2.3541611E-1,1.3489926E1,-1.0814858E-3,1.9324416E-2,-1.9260402E0,9.999759E-1,-1.0315895E0,1.3640586E1,-2.569662E-1,1.63414E0,9.997313E-1,1.9100952E-3,1.3649564E0,-8.956729E-1,4.4280264E-1,-5.831584E-1,-8.455677E-1,2.969152E-1,-1.0241394E-2,3.39895E-2,3.388258E-2,-5.0624465E-3,3.1002091E-2,3.170515E-2,1.5006523E-2,6.2790397E-3,3.1239327E-2,3.1112945E-2,3.1136764E-2,-2.5089453E-3,2.1832425E-2,1.783731E-2,-8.4316253E-4,2.760042E-2,3.107252E-2,3.107252E-2,3.1095581E-2,1.5929097E-2,9.688103E-3,3.0022226E-3,1.4618028E-2,-3.2539952E-3,-9.5559235E-6,1.542979E-2,-2.0137345E-2,-2.541934E-2,-4.1551314E-2,-1.3799102E-2,-3.8965758E-2,1.19514465E-4,-1.0705471E-2,-2.7433585E-3,-2.4307559E-3,7.6100742E-3,2.9968834E-3,-2.036319E-2,-4.162394E-3,7.4316794E-3],"split_indices":[56,256,56,256,260,193,258,142,56,139,260,56,0,32,141,259,24,66,260,0,27,0,0,141,141,0,0,1,128,256,256,8,0,256,8,0,24,24,256,0,0,52,260,24,258,9,259,260,0,259,7,75,24,43,193,0,0,0,0,0,0,0,0,0,0,0,0,0,0,0,0,0,0,0,0,0,0,0,0,0,0,0,0,0,0,0,0,0,0,0,0,0,0,0,0],"split_type":[0,0,0,0,0,0,0,0,0,0,0,0,0,0,0,0,0,0,0,0,0,0,0,0,0,0,0,0,0,0,0,0,0,0,0,0,0,0,0,0,0,0,0,0,0,0,0,0,0,0,0,0,0,0,0,0,0,0,0,0,0,0,0,0,0,0,0,0,0,0,0,0,0,0,0,0,0,0,0,0,0,0,0,0,0,0,0,0,0,0,0,0,0,0,0],"sum_hessian":[1.1628E4,1.008E3,1.062E4,7.73E2,2.35E2,1.963E3,8.657E3,2.46E2,5.27E2,1.56E2,7.9E1,1.954E3,9E0,4.818E3,3.839E3,1.7E1,2.29E2,1.55E2,3.72E2,1.51E2,5E0,3E0,7.6E1,9.08E2,1.046E3,1E0,8E0,1.585E3,3.233E3,2.365E3,1.474E3,1.1E1,6E0,5.4E1,1.75E2,5E0,1.5E2,1.38E2,2.34E2,3E0,2E0,9E0,6.7E1,4.16E2,4.92E2,6.4E1,9.82E2,1.584E3,1E0,3.228E3,5E0,2.111E3,2.54E2,1.126E3,3.48E2,1E0,1E1,1E0,5E0,9E0,4.5E1,1.15E2,6E1,1.4E1,1.36E2,1.36E2,2E0,1.81E2,5.3E1,4E0,5E0,6.2E1,5E0,8E0,4.08E2,6.3E1,4.29E2,4.5E1,1.9E1,9.41E2,4.1E1,1.178E3,4.06E2,3.213E3,1.5E1,4E0,1E0,1.188E3,9.23E2,1.62E2,9.2E1,2E0,1.124E3,3.23E2,2.5E1],"tree_param":{"num_deleted":"0","num_feature":"261","num_nodes":"95","size_leaf_vector":"1"}},{"base_weights":[-6.9480645E-3,4.4431484E-1,-5.092823E-2,7.275735E-1,3.420844E-1,5.402114E-2,-7.380323E-2,6.0337836E-1,1.7376E-2,5.896226E-1,3.0137822E-1,3.7064195E-2,1.6210935E-1,-8.774442E-2,-3.6906287E-2,-1.3333337E-3,6.130137E-1,-2.1674417E-8,6.510416E-1,3.7157103E-1,1.8893278E-1,3.2695845E-2,5.0666666E-1,1.8075311E-1,-1.8888894E-3,-9.585268E-2,-7.464733E-2,-2.1184692E-2,-6.0740765E-2,5.702479E-1,7.884615E-1,-1.7777783E-3,2.6666665E-1,6.7888886E-1,1.9999997E-1,3.2039997E-1,4.5328945E-1,1.1633985E-1,2.9702967E-1,7.543033E-2,4.8829876E-3,7.1E-1,8.333331E-2,6.363636E-1,1.5807858E-1,-1.9990148E-3,-9.13161E-2,-8.469753E-2,-2.995498E-2,-2.4982179E-2,1.3142855E-1,-6.360728E-2,2.4444443E-1,1.1982758E-2,-1.6666669E-3,-1.0000002E-3,1.6479999E-2,-1.0000002E-3,9E-3,9.391303E-3,1.4794117E-2,-1.6000004E-3,1.1999999E-2,6.831932E-3,-1.8461543E-3,7.419999E-3,1.1999999E-2,2.977443E-3,-1.9047624E-3,1.142857E-2,4.4444436E-3,3.233333E-3,8.304343E-4,8.377819E-4,-6.2776706E-4,1.5999999E-2,-1.0000002E-3,-1.5000004E-3,5.333333E-3,1.5749998E-2,3.4999996E-3,3.5865377E-3,-1.0000004E-3,-1.8369334E-3,5.333333E-3,5.333333E-3,-1.7038172E-3,4.454545E-3,-8.605206E-4,8.4999995E-3,-5.2503624E-4,6.451608E-4,1.4399999E-2,-1.0632535E-3,-1.773723E-3,5.749999E-3,-1.0000002E-3],"categories":[],"categories_nodes":[],"categories_segments":[],"categories_sizes":[],"default_left":[0,0,0,0,0,0,0,0,0,0,0,0,0,0,0,0,0,0,0,0,0,0,0,0,0,0,0,0,0,0,0,0,0,0,0,0,0,0,0,0,0,0,0,0,0,0,0,0,0,0,0,0,0,0,0,0,0,0,0,0,0,0,0,0,0,0,0,0,0,0,0,0,0,0,0,0,0,0,0,0,0,0,0,0,0,0,0,0,0,0,0,0,0,0,0,0,0],"id":10,"left_children":[1,3,5,7,9,11,13,15,-1,17,19,21,23,25,27,-1,29,31,33,35,37,39,41,43,-1,45,47,49,51,53,55,-1,57,59,61,63,65,67,69,71,73,75,77,79,81,-1,83,85,87,89,91,93,95,-1,-1,-1,-1,-1,-1,-1,-1,-1,-1,-1,-1,-1,-1,-1,-1,-1,-1,-1,-1,-1,-1,-1,-1,-1,-1,-1,-1,-1,-1,-1,-1,-1,-1,-1,-1,-1,-1,-1,-1,-1,-1,-1,-1],"loss_changes":[2.2996553E2,2.9548538E1,2.5350756E1,4.246567E0,7.4601593E0,3.4580703E0,4.455986E0,9.963722E-1,0E0,3.838688E0,5.0838394E0,3.337456E0,1.2415524E0,6.609154E-1,8.9016294E-1,0E0,6.458397E-1,2.8444445E-1,1.0700035E0,1.5315933E0,1.9507532E0,1.9263009E0,1.2319996E0,2.368455E0,0E0,6.30455E-2,1.0799551E0,8.34933E-1,8.4225154E-1,2.3346481E0,8.1593895E-1,0E0,1.9666666E-1,7.984009E-1,8.32E-1,2.2185345E0,1.6124554E0,1.0672956E0,1.9462519E0,1.8618219E0,1.3207575E0,7.2400045E-1,1.9416668E-1,6.2920475E-1,1.0214491E0,0E0,3.7663746E-1,3.6367512E-1,1.4760361E0,8.1156534E-1,2.0196867E0,2.4072194E-1,1.2847221E-1,0E0,0E0,0E0,0E0,0E0,0E0,0E0,0E0,0E0,0E0,0E0,0E0,0E0,0E0,0E0,0E0,0E0,0E0,0E0,0E0,0E0,0E0,0E0,0E0,0E0,0E0,0E0,0E0,0E0,0E0,0E0,0E0,0E0,0E0,0E0,0E0,0E0,0E0,0E0,0E0,0E0,0E0,0E0,0E0],"parents":[2147483647,0,0,1,1,2,2,3,3,4,4,5,5,6,6,7,7,9,9,10,10,11,11,12,12,13,13,14,14,16,16,17,17,18,18,19,19,20,20,21,21,22,22,23,23,25,25,26,26,27,27,28,28,29,29,30,30,32,32,33,33,34,34,35,35,36,36,37,37,38,38,39,39,40,40,41,41,42,42,43,43,44,44,46,46,47,47,48,48,49,49,50,50,51,51,52,52],"right_children":[2,4,6,8,10,12,14,16,-1,18,20,22,24,26,28,-1,30,32,34,36,38,40,42,44,-1,46,48,50,52,54,56,-1,58,60,62,64,66,68,70,72,74,76,78,80,82,-1,84,86,88,90,92,94,96,-1,-1,-1,-1,-1,-1,-1,-1,-1,-1,-1,-1,-1,-1,-1,-1,-1,-1,-1,-1,-1,-1,-1,-1,-1,-1,-1,-1,-1,-1,-1,-1,-1,-1,-1,-1,-1,-1,-1,-1,-1,-1,-1,-1],"split_conditions":[-1.2024481E0,-2.1195614E0,-3.6798164E-1,7.258676E-1,9.9973434E-1,3.9049193E-1,7.291618E-2,4.2944148E-1,3.0451069E-2,3.9797E-1,-1.4844794E0,2.2844675E-1,-6.4170814E-1,1.2341831E1,5.114805E-1,-6.656837E-4,2.8043466E0,-1.2887447E0,5.0097054E-1,7.102006E-1,-3.5740915E-1,-6.9529665E-1,1.4192364E0,9.9443877E-1,-2.551614E-4,-4.7819513E-1,4.3417707E-1,3.0739632E-1,1.5662106E0,8.345378E-1,5.55516E-1,-8.7097165E-4,-3.7692812E-1,7.3067737E-1,7.080574E-1,1.8960499E0,9.999638E-1,1.1716316E0,-7.699653E-1,-6.5599066E-1,9.9959844E-1,4.193732E-1,5.629861E-2,-5.6029543E-2,6.1447257E-1,-5.116933E-2,4.7368488E-1,-6.2932074E-1,8.311541E-1,-4.4735846E-1,-3.0856085E-1,-4.2375845E-1,-5.193934E-1,3.0451069E-2,-6.2904356E-4,-2.1747721E-2,3.0451069E-2,-1.0718193E-2,3.0420398E-2,3.126512E-2,3.0510945E-2,-1.683775E-2,3.0603236E-2,3.051071E-2,-8.473265E-4,2.3566894E-2,3.0924933E-2,1.1007004E-2,-7.722932E-3,3.140708E-2,1.4548617E-2,1.6893921E-2,6.4178077E-3,7.8376485E-3,-2.254075E-3,3.037119E-2,-1.1327049E-1,-4.4122696E-4,9.9897E-3,3.29533E-2,3.336624E-2,1.9760828E-2,-1.7417874E-3,-2.8282315E-2,4.3626536E-2,2.5714873E-4,-2.1104489E-2,6.7289453E-3,-3.1191275E-2,1.3514576E-2,-2.9127523E-3,2.6899928E-3,3.6757965E-2,-8.750066E-3,-1.6100219E-2,3.460724E-2,-5.8153667E-2],"split_indices":[56,56,56,212,260,212,212,212,0,141,56,193,24,258,141,0,45,56,8,141,193,56,259,260,0,222,198,74,259,141,259,0,1,46,141,127,260,259,24,24,260,1,3,8,141,0,81,24,259,11,102,24,8,0,0,0,0,0,0,0,0,0,0,0,0,0,0,0,0,0,0,0,0,0,0,0,0,0,0,0,0,0,0,0,0,0,0,0,0,0,0,0,0,0,0,0,0],"split_type":[0,0,0,0,0,0,0,0,0,0,0,0,0,0,0,0,0,0,0,0,0,0,0,0,0,0,0,0,0,0,0,0,0,0,0,0,0,0,0,0,0,0,0,0,0,0,0,0,0,0,0,0,0,0,0,0,0,0,0,0,0,0,0,0,0,0,0,0,0,0,0,0,0,0,0,0,0,0,0,0,0,0,0,0,0,0,0,0,0,0,0,0,0,0,0,0,0],"sum_hessian":[1.1585E4,1.028E3,1.0557E4,2.71E2,7.57E2,1.889E3,8.668E3,1.47E2,1.24E2,1.05E2,6.52E2,1.634E3,2.55E2,6.29E3,2.378E3,2E0,1.45E2,1E1,9.5E1,4E2,2.52E2,1.62E3,1.4E1,2.38E2,1.7E1,3.881E3,2.409E3,1.434E3,9.44E2,1.2E2,2.5E1,8E0,2E0,8.9E1,6E0,2.49E2,1.51E2,1.52E2,1E2,6.38E2,9.82E2,9E0,5E0,1E1,2.28E2,2.028E3,1.853E3,1.966E3,4.43E2,1.4E3,3.4E1,9.36E2,8E0,1.15E2,5E0,1E0,2.4E1,1E0,1E0,2.2E1,6.7E1,4E0,2E0,2.37E2,1.2E1,9.9E1,5.2E1,1.32E2,2E1,2E1,8E1,1.79E2,4.59E2,4.86E2,4.96E2,8E0,1E0,3E0,2E0,7E0,3E0,2.07E2,2.1E1,1.851E3,2E0,2E0,1.964E3,2.1E1,4.22E2,3E0,1.397E3,3E1,4E0,6.63E2,2.73E2,7E0,1E0],"tree_param":{"num_deleted":"0","num_feature":"261","num_nodes":"97","size_leaf_vector":"1"}},{"base_weights":[-6.759347E-3,4.3374404E-1,-5.089271E-2,3.3693248E-1,7.5933605E-1,5.5573225E-2,-7.408352E-2,4.4182304E-1,2.478555E-1,6.5346533E-1,1.6595744E-2,5.1471353E-2,5.3125E-1,-9.131961E-2,-5.2053735E-2,3.749998E-2,4.4945353E-1,4.811594E-1,2.0426664E-1,-1.3333337E-3,6.6868687E-1,9.04311E-2,1.1098997E-2,6.2142855E-1,-1.3333337E-3,-5.3881302E-2,-9.306997E-2,-3.56926E-2,-7.7205904E-2,-1.6666669E-3,2.6666665E-1,5.826087E-1,4.1711408E-1,2.3666665E-1,6.525E-1,3.0095235E-1,1.6605164E-1,6.8829787E-1,2.4999999E-1,8.3280064E-2,5.9999996E-1,1.8775508E-1,1.1480819E-3,1.7499998E-1,7.272727E-1,9E-3,-5.8256906E-2,-8.650339E-2,-9.8392814E-2,-4.1384343E-2,1.3865522E-2,9E-3,-7.785956E-2,-1.0000002E-3,9E-3,1.185294E-2,-1.0000002E-3,8.770992E-3,5.081081E-3,8.099999E-3,-1.8181823E-3,1.5583333E-2,8.705881E-3,8.34375E-3,2.3333328E-3,-2.9166712E-4,4.0803566E-3,1.6416667E-2,1.2676056E-2,1.1999999E-2,-1.5000004E-3,2.5574462E-3,7.7021227E-4,1.5999999E-2,2.3999996E-3,6.4516123E-3,-8.421057E-4,2.8309258E-4,-1.7981655E-3,9E-3,-1.3333337E-3,5.333333E-3,1.5999999E-2,-1.9807697E-3,-4.1739177E-4,-1.7394235E-3,5.333333E-3,-6.2500045E-4,-1.9755526E-3,-1.2099404E-3,-3.3111157E-4,1.1570243E-3,-6.271191E-4,-1.656566E-3,-9.377995E-4],"categories":[],"categories_nodes":[],"categories_segments":[],"categories_sizes":[],"default_left":[0,0,0,0,0,0,0,0,0,0,0,0,0,0,0,0,0,0,0,0,0,0,0,0,0,0,0,0,0,0,0,0,0,0,0,0,0,0,0,0,0,0,0,0,0,0,0,0,0,0,0,0,0,0,0,0,0,0,0,0,0,0,0,0,0,0,0,0,0,0,0,0,0,0,0,0,0,0,0,0,0,0,0,0,0,0,0,0,0,0,0,0,0,0,0],"id":11,"left_children":[1,3,5,7,9,11,13,15,17,19,-1,21,23,25,27,29,31,33,35,-1,37,39,41,43,-1,45,47,49,51,-1,53,55,57,59,61,63,65,67,69,71,73,75,77,79,81,-1,83,85,87,89,91,-1,93,-1,-1,-1,-1,-1,-1,-1,-1,-1,-1,-1,-1,-1,-1,-1,-1,-1,-1,-1,-1,-1,-1,-1,-1,-1,-1,-1,-1,-1,-1,-1,-1,-1,-1,-1,-1,-1,-1,-1,-1,-1,-1],"loss_changes":[2.2522543E2,3.2998886E1,2.6003017E1,7.50531E0,1.25531E0,3.6486526E0,3.278576E0,1.1339264E0,4.406782E0,1.1516914E0,0E0,2.9387403E0,9.0413713E-1,3.12809E-1,1.5601912E0,2.4375E-1,1.3330383E0,2.7360897E0,1.3355932E0,0E0,6.408043E-1,3.4154267E0,1.615285E0,5.342531E-1,0E0,5.0906324E-1,1.5338516E-1,6.501856E-1,5.505705E-1,0E0,1.9666666E-1,4.6780586E-1,9.301796E-1,1.691076E0,7.61343E-1,2.2004776E0,1.8614998E0,1.5867233E-1,7.2749996E-1,1.869667E0,1.152E0,1.5321438E0,1.032823E0,2.9583335E-1,1.5515137E-1,0E0,3.3032078E-1,3.6715984E-1,6.282425E-2,9.794066E-1,4.752193E-1,0E0,2.2616673E-1,0E0,0E0,0E0,0E0,0E0,0E0,0E0,0E0,0E0,0E0,0E0,0E0,0E0,0E0,0E0,0E0,0E0,0E0,0E0,0E0,0E0,0E0,0E0,0E0,0E0,0E0,0E0,0E0,0E0,0E0,0E0,0E0,0E0,0E0,0E0,0E0,0E0,0E0,0E0,0E0,0E0,0E0],"parents":[2147483647,0,0,1,1,2,2,3,3,4,4,5,5,6,6,7,7,8,8,9,9,11,11,12,12,13,13,14,14,15,15,16,16,17,17,18,18,20,20,21,21,22,22,23,23,25,25,26,26,27,27,28,28,30,30,31,31,32,32,33,33,34,34,35,35,36,36,37,37,38,38,39,39,40,40,41,41,42,42,43,43,44,44,46,46,47,47,48,48,49,49,50,50,52,52],"right_children":[2,4,6,8,10,12,14,16,18,20,-1,22,24,26,28,30,32,34,36,-1,38,40,42,44,-1,46,48,50,52,-1,54,56,58,60,62,64,66,68,70,72,74,76,78,80,82,-1,84,86,88,90,92,-1,94,-1,-1,-1,-1,-1,-1,-1,-1,-1,-1,-1,-1,-1,-1,-1,-1,-1,-1,-1,-1,-1,-1,-1,-1,-1,-1,-1,-1,-1,-1,-1,-1,-1,-1,-1,-1,-1,-1,-1,-1,-1,-1],"split_conditions":[-1.2024481E0,1.3929157E1,-3.6798164E-1,-1.6404072E0,1.4182045E1,2.097305E-1,1.27128935E1,-2.1102095E0,5.960619E-1,-1.1149552E0,2.9842053E-2,-6.5554315E-1,1.2327461E1,-2.6087272E-1,5.2777E-1,2.7750378E0,-2.1195614E0,7.71258E-1,-1.5110289E0,-5.1142117E-3,-4.4657752E-1,-4.5026746E-1,3.534002E-1,3.1277854E-2,-2.409958E-2,-4.8588672E-1,4.0664506E-1,1.1544857E1,-8.455677E-1,-6.5237045E-4,9.758524E-1,8.345378E-1,1.9630091E0,5.497025E-1,1.3321195E1,1.3163529E1,-1.0147263E0,1.542348E0,4.6984E-1,5.8574724E-1,2.5055036E-1,-2.569662E-1,-1.0385782E-1,1.1481434E1,9.072916E0,1.1228046E-2,-1.8700866E-1,8.032513E-1,-4.3308175E-1,4.4334614E-1,-1.1245569E-1,2.2448157E-3,1.1560304E1,-1.120224E-3,1.3500232E-2,2.9890614E-2,-8.523292E-3,2.9889597E-2,1.963461E-2,3.0580347E-2,-6.193079E-3,2.5290968E-2,2.86802E-2,1.9478321E-2,1.5425546E-2,-3.1184038E-4,1.5058188E-2,2.9903578E-2,2.9842053E-2,3.0192183E-3,-1.6700744E-3,1.3822008E-2,3.4679556E-3,3.2294236E-2,1.17799E-2,1.6069155E-2,-2.6655714E-3,8.470465E-4,-7.427688E-3,9.7899055E-3,-2.0235728E-2,4.308376E-3,3.4454346E-2,-1.493342E-2,-2.4901628E-3,-2.3799475E-2,6.827736E-4,-1.1061634E-2,-4.409229E-2,-1.0637507E-2,-2.6302338E-3,4.908934E-3,-2.805214E-3,-1.8230809E-2,-5.617251E-3],"split_indices":[56,256,56,56,256,193,258,66,141,193,0,56,256,170,141,21,56,2,86,0,31,149,141,115,0,0,32,256,43,0,8,141,2,141,256,256,54,33,141,141,37,9,101,256,257,0,142,12,82,75,76,0,256,0,0,0,0,0,0,0,0,0,0,0,0,0,0,0,0,0,0,0,0,0,0,0,0,0,0,0,0,0,0,0,0,0,0,0,0,0,0,0,0,0,0],"split_type":[0,0,0,0,0,0,0,0,0,0,0,0,0,0,0,0,0,0,0,0,0,0,0,0,0,0,0,0,0,0,0,0,0,0,0,0,0,0,0,0,0,0,0,0,0,0,0,0,0,0,0,0,0,0,0,0,0,0,0,0,0,0,0,0,0,0,0,0,0,0,0,0,0,0,0,0,0,0,0,0,0,0,0,0,0,0,0,0,0,0,0,0,0,0,0],"sum_hessian":[1.1583E4,1.054E3,1.0529E4,8.14E2,2.4E2,1.883E3,8.646E3,3.72E2,4.42E2,1E2,1.4E2,1.868E3,1.5E1,4.849E3,3.797E3,7E0,3.65E2,6.8E1,3.74E2,2E0,9.8E1,9.5E2,9.18E2,1.3E1,2E0,2.18E2,4.631E3,2.302E3,1.495E3,5E0,2E0,6.8E1,2.97E2,2.9E1,3.9E1,1.04E2,2.7E2,9.3E1,5E0,9.38E2,1.2E1,4.8E1,8.7E2,3E0,1E1,1E0,2.17E2,2.081E3,2.55E3,2.065E3,2.37E2,1E0,1.494E3,1E0,1E0,6.7E1,1E0,2.61E2,3.6E1,1.9E1,1E1,2.3E1,1.6E1,6.3E1,4.1E1,4.7E1,2.23E2,2.3E1,7E1,2E0,3E0,4.69E2,4.69E2,8E0,4E0,3E1,1.8E1,7.62E2,1.08E2,1E0,2E0,2E0,8E0,1.03E2,1.14E2,2.079E3,2E0,1.5E1,2.535E3,1.166E3,8.99E2,1.2E2,1.17E2,1.286E3,2.08E2],"tree_param":{"num_deleted":"0","num_feature":"261","num_nodes":"95","size_leaf_vector":"1"}},{"base_weights":[-8.474746E-3,-4.55722E-2,5.138243E-1,-6.948117E-2,9.452484E-2,3.7435344E-1,7.202572E-1,-9.175438E-2,-4.0950306E-2,6.418753E-2,2.0056655E-1,4.7479337E-1,2.6367712E-1,6.140449E-1,1.7119402E-2,-9.265332E-2,2.1428548E-2,-5.8325473E-2,-2.2284288E-2,4.061536E-2,1.5133077E-1,1.8684208E-1,5.75E-1,4.393782E-1,6.02E-1,2.0588212E-2,3.0578944E-1,5.372727E-1,7.275362E-1,-9.3702205E-2,-3.2222245E-2,1.1999999E-2,-2.2500023E-2,-5.923298E-2,1.1999999E-2,3.25E-1,-2.4400229E-2,1.635593E-1,2.365965E-2,1.3385211E-1,1.542857E-2,2.337719E-1,9.217389E-2,7.1E-1,-1.3333337E-3,4.5372337E-1,-1.6666669E-3,7.7916664E-1,4.222222E-1,4.2499998E-1,-3.2258086E-2,3.3238634E-1,-2.666669E-2,5.5514014E-1,-1.5000004E-3,7.630769E-1,1.1999998E-1,-1.9756006E-3,-1.77239E-3,4.8333327E-3,-1.4683548E-3,3.1666663E-3,-1.9310348E-3,6.4E-3,-1.2020877E-3,-1.6666669E-3,1.2571428E-2,-6.2227243E-4,9.0173364E-4,4.783783E-3,7.1111065E-4,8.473049E-4,-8.376968E-4,3.2980763E-3,3.999953E-5,7.6164375E-3,3.2692302E-3,9.333333E-3,1.1962611E-3,1.5749998E-2,5.333333E-3,9.2677595E-3,1.6666662E-3,-1.0000002E-3,1.6347826E-2,9.749999E-3,-1.5000004E-3,1.1999999E-2,-1.0000002E-3,9E-3,-1.266667E-3,1.1172414E-2,5.716216E-3,9E-3,-1.8571432E-3,-1.3333337E-3,1.135238E-2,1.5531248E-2,-1.0000002E-3,-1.5000004E-3,9E-3],"categories":[],"categories_nodes":[],"categories_segments":[],"categories_sizes":[],"default_left":[0,0,0,0,0,0,0,0,0,0,0,0,0,0,0,0,0,0,0,0,0,0,0,0,0,0,0,0,0,0,0,0,0,0,0,0,0,0,0,0,0,0,0,0,0,0,0,0,0,0,0,0,0,0,0,0,0,0,0,0,0,0,0,0,0,0,0,0,0,0,0,0,0,0,0,0,0,0,0,0,0,0,0,0,0,0,0,0,0,0,0,0,0,0,0,0,0,0,0,0,0],"id":12,"left_children":[1,3,5,7,9,11,13,15,17,19,21,23,25,27,-1,29,31,33,35,37,39,41,43,45,47,49,51,53,55,57,59,-1,61,63,-1,65,67,69,71,73,-1,75,77,79,-1,81,-1,83,85,87,89,91,93,95,-1,97,99,-1,-1,-1,-1,-1,-1,-1,-1,-1,-1,-1,-1,-1,-1,-1,-1,-1,-1,-1,-1,-1,-1,-1,-1,-1,-1,-1,-1,-1,-1,-1,-1,-1,-1,-1,-1,-1,-1,-1,-1,-1,-1,-1,-1],"loss_changes":[2.2614093E2,3.6506897E1,2.2014877E1,5.911865E0,5.0989695E0,5.0327835E0,3.9572754E0,5.3380966E-1,1.3229198E0,2.5348434E0,1.7065983E0,8.257141E-1,2.2765646E0,1.1600266E0,0E0,3.2569504E-1,1.0809643E0,1.2985148E0,1.4555504E0,2.0286171E0,2.7472615E0,1.4978762E0,1.086833E0,1.4850006E0,1.2635498E0,7.403463E-1,1.6889E0,1.2450047E0,1.3982964E0,1.22795105E-1,1.0332117E0,0E0,5.509282E-1,7.1718025E-1,0E0,1.5398811E0,9.152627E-1,1.1338422E0,1.0537243E0,1.0518875E0,0E0,2.2950754E0,1.3657601E0,1.3358355E-1,0E0,6.3436127E-1,0E0,8.015404E-1,9.129162E-1,3.6249995E-1,4.9307528E-1,1.6948509E0,5.1504767E-1,8.68103E-1,0E0,7.5154114E-1,3.5549998E-1,0E0,0E0,0E0,0E0,0E0,0E0,0E0,0E0,0E0,0E0,0E0,0E0,0E0,0E0,0E0,0E0,0E0,0E0,0E0,0E0,0E0,0E0,0E0,0E0,0E0,0E0,0E0,0E0,0E0,0E0,0E0,0E0,0E0,0E0,0E0,0E0,0E0,0E0,0E0,0E0,0E0,0E0,0E0,0E0],"parents":[2147483647,0,0,1,1,2,2,3,3,4,4,5,5,6,6,7,7,8,8,9,9,10,10,11,11,12,12,13,13,15,15,16,16,17,17,18,18,19,19,20,20,21,21,22,22,23,23,24,24,25,25,26,26,27,27,28,28,29,29,30,30,32,32,33,33,35,35,36,36,37,37,38,38,39,39,41,41,42,42,43,43,45,45,47,47,48,48,49,49,50,50,51,51,52,52,53,53,55,55,56,56],"right_children":[2,4,6,8,10,12,14,16,18,20,22,24,26,28,-1,30,32,34,36,38,40,42,44,46,48,50,52,54,56,58,60,-1,62,64,-1,66,68,70,72,74,-1,76,78,80,-1,82,-1,84,86,88,90,92,94,96,-1,98,100,-1,-1,-1,-1,-1,-1,-1,-1,-1,-1,-1,-1,-1,-1,-1,-1,-1,-1,-1,-1,-1,-1,-1,-1,-1,-1,-1,-1,-1,-1,-1,-1,-1,-1,-1,-1,-1,-1,-1,-1,-1,-1,-1,-1],"split_conditions":[1.3021699E1,1.1909479E1,5.9717315E-1,1.5836645E-2,4.03076E-1,-1.3021352E0,7.258676E-1,1.488842E0,1.35778885E1,1.2833691E0,3.4718955E-1,1.9660745E0,-1.2997743E0,1.2244206E1,2.9245203E-2,1.121814E1,-8.927677E-1,2.5541097E-1,1.0027336E1,-1.3396473E0,2.660152E-1,-3.0466598E-1,-2.569662E-1,1.2356219E1,1.2577314E1,1.3085004E1,-1.2461084E0,2.2044735E0,-6.0715234E-1,1.1694714E1,-3.9388978E-1,6.0490035E-3,-8.3964735E-1,-9.257562E-1,1.078886E-2,9.14353E-1,3.004998E-1,4.6033072E-1,-5.260282E-1,3.720249E-3,2.9074688E-2,-7.761267E-1,9.336015E-1,-5.700723E-1,-3.130493E-3,8.4614044E-1,-2.097721E-3,-1.1149552E0,-3.0630603E-1,5.592501E-1,4.6033072E-1,6.5840524E-1,-9.069586E-1,6.824205E-1,-2.0321654E-3,-5.364951E-1,1.078928E0,-4.072931E-2,-2.6533352E-2,1.3876712E-2,-9.362403E-3,1.1720376E-2,-4.225956E-2,9.660606E-3,-1.0518655E-2,-3.8307454E-2,3.4335822E-2,-3.780343E-3,8.6437715E-3,9.515551E-3,9.425211E-3,4.0502953E-3,-6.36322E-3,1.4419524E-2,2.0518452E-3,2.781696E-2,1.5022863E-2,3.2756157E-2,1.942132E-2,9.017639E-3,2.9528046E-3,2.8326394E-2,1.13566015E-2,-5.011921E-3,2.9245203E-2,2.9245203E-2,-6.393242E-4,3.178648E-2,-3.0332565E-4,2.0994758E-3,-3.4526887E-4,2.8286371E-2,1.7230893E-2,5.8829305E-3,-9.762001E-3,-1.6366767E-3,2.9314335E-2,2.9270427E-2,-9.827594E-3,-2.4299049E-3,3.8125801E-3],"split_indices":[256,256,212,212,212,170,212,259,258,259,5,106,39,257,0,256,18,8,256,126,193,1,9,257,257,256,56,19,24,258,24,0,43,24,0,1,212,8,56,142,0,24,259,56,0,8,0,193,24,8,8,106,24,259,0,1,8,0,0,0,0,0,0,0,0,0,0,0,0,0,0,0,0,0,0,0,0,0,0,0,0,0,0,0,0,0,0,0,0,0,0,0,0,0,0,0,0,0,0,0,0],"split_type":[0,0,0,0,0,0,0,0,0,0,0,0,0,0,0,0,0,0,0,0,0,0,0,0,0,0,0,0,0,0,0,0,0,0,0,0,0,0,0,0,0,0,0,0,0,0,0,0,0,0,0,0,0,0,0,0,0,0,0,0,0,0,0,0,0,0,0,0,0,0,0,0,0,0,0,0,0,0,0,0,0,0,0,0,0,0,0,0,0,0,0,0,0,0,0,0,0,0,0,0,0],"sum_hessian":[1.1669E4,1.0896E4,7.73E2,9.308E3,1.588E3,4.63E2,3.1E2,5.226E3,4.082E3,1.236E3,3.52E2,2.41E2,2.22E2,1.77E2,1.33E2,5.185E3,4.1E1,2.113E3,1.969E3,9.74E2,2.62E2,3.41E2,1.1E1,1.92E2,4.9E1,3.3E1,1.89E2,1.09E2,6.8E1,5.096E3,8.9E1,2E0,3.9E1,2.111E3,2E0,1.1E1,1.958E3,1.17E2,8.57E2,2.56E2,6E0,2.27E2,1.14E2,9E0,2E0,1.87E2,5E0,2.3E1,2.6E1,3E0,3E1,1.75E2,1.4E1,1.06E2,3E0,6.4E1,4E0,2.54E3,2.556E3,1.1E1,7.8E1,1.1E1,2.8E1,4E0,2.107E3,5E0,6E0,1.786E3,1.72E2,7.3E1,4.4E1,6.67E2,1.9E2,2.07E2,4.9E1,7.2E1,1.55E2,8E0,1.06E2,7E0,2E0,1.82E2,5E0,1E0,2.2E1,2.3E1,3E0,2E0,1E0,1E0,2.9E1,2.8E1,1.47E2,1E0,1.3E1,2E0,1.04E2,6.3E1,1E0,3E0,1E0],"tree_param":{"num_deleted":"0","num_feature":"261","num_nodes":"101","size_leaf_vector":"1"}},{"base_weights":[-9.540931E-3,4.3113655E-1,-5.285891E-2,7.236749E-1,3.2235292E-1,4.4801198E-2,-7.490221E-2,5.9999996E-1,1.7251907E-2,2.3502201E-1,4.483974E-1,2.6977545E-2,1.568773E-1,-9.038211E-2,-5.0532885E-2,-1.5000004E-3,6.1399996E-1,3.8875E-1,2.0159997E-1,4.6098357E-1,-1.7500004E-3,2.085334E-2,3.548387E-1,1.7975706E-1,-1.913044E-3,-9.124575E-2,6.249977E-3,-5.1081505E-2,4.2499998E-1,6.8131864E-1,5.0166667E-1,4.1447365E-1,-1.6000004E-3,6.8888885E-1,1.8910079E-1,5.911504E-1,3.823834E-1,-1.8488985E-3,8.788596E-2,4.6956518E-1,2.22222E-2,6.8888885E-1,1.5983261E-1,-8.44132E-2,-9.840221E-2,-3.2608718E-2,1.1999999E-2,-8.333357E-3,-5.6358214E-2,-1.0000002E-3,1.1999999E-2,9.28E-3,1.5044776E-2,1.1764705E-2,1.9999956E-4,1.8181814E-3,9.242424E-3,1.5749998E-2,-1.0000002E-3,5.5302004E-3,2.575342E-3,1.3878048E-2,6.1874995E-3,5.8181817E-3,8.786324E-3,-7.748231E-5,8.333333E-3,1.0833328E-3,3.654545E-3,1.1099999E-2,-1.5000004E-3,3.4999996E-3,-1.6666669E-3,1.5749998E-2,-1.0000002E-3,1.6093745E-3,4.9821422E-3,-1.7378223E-3,-9.7175187E-4,-1.9756868E-3,-7.058828E-4,3.1666663E-3,-1.9428576E-3,-2.156339E-4,9E-3,-1.1531233E-3,1.7777773E-3],"categories":[],"categories_nodes":[],"categories_segments":[],"categories_sizes":[],"default_left":[0,0,0,0,0,0,0,0,0,0,0,0,0,0,0,0,0,0,0,0,0,0,0,0,0,0,0,0,0,0,0,0,0,0,0,0,0,0,0,0,0,0,0,0,0,0,0,0,0,0,0,0,0,0,0,0,0,0,0,0,0,0,0,0,0,0,0,0,0,0,0,0,0,0,0,0,0,0,0,0,0,0,0,0,0,0,0],"id":13,"left_children":[1,3,5,7,9,11,13,15,-1,17,19,21,23,25,27,-1,29,31,33,35,-1,37,39,41,-1,43,45,47,49,51,53,55,-1,57,59,61,63,65,67,69,71,73,75,77,79,81,-1,83,85,-1,-1,-1,-1,-1,-1,-1,-1,-1,-1,-1,-1,-1,-1,-1,-1,-1,-1,-1,-1,-1,-1,-1,-1,-1,-1,-1,-1,-1,-1,-1,-1,-1,-1,-1,-1,-1,-1],"loss_changes":[2.2330984E2,3.30858E1,2.2932308E1,4.3446503E0,8.315414E0,3.9150708E0,3.2736015E0,1.4918976E0,0E0,2.2542362E0,2.144741E0,3.393963E0,1.5714264E0,4.4397736E-1,9.0298843E-1,0E0,7.9252625E-1,9.977951E-1,2.1537476E0,2.894455E0,0E0,2.532422E0,1.172523E0,2.395504E0,0E0,2.4918365E-1,1.127038E0,7.6082706E-1,3.6249995E-1,1.0534782E0,2.5478935E0,1.1296844E0,0E0,6.9513893E-1,1.8998508E0,3.0570145E0,8.7732124E-1,1.0560099E0,1.3364532E0,1.1116958E0,1.5972222E-1,6.9513893E-1,1.6733103E0,2.3555374E-1,5.8395386E-2,5.82206E-1,0E0,4.2229337E-1,5.7145214E-1,0E0,0E0,0E0,0E0,0E0,0E0,0E0,0E0,0E0,0E0,0E0,0E0,0E0,0E0,0E0,0E0,0E0,0E0,0E0,0E0,0E0,0E0,0E0,0E0,0E0,0E0,0E0,0E0,0E0,0E0,0E0,0E0,0E0,0E0,0E0,0E0,0E0,0E0],"parents":[2147483647,0,0,1,1,2,2,3,3,4,4,5,5,6,6,7,7,9,9,10,10,11,11,12,12,13,13,14,14,16,16,17,17,18,18,19,19,21,21,22,22,23,23,25,25,26,26,27,27,28,28,29,29,30,30,31,31,33,33,34,34,35,35,36,36,37,37,38,38,39,39,40,40,41,41,42,42,43,43,44,44,45,45,47,47,48,48],"right_children":[2,4,6,8,10,12,14,16,-1,18,20,22,24,26,28,-1,30,32,34,36,-1,38,40,42,-1,44,46,48,50,52,54,56,-1,58,60,62,64,66,68,70,72,74,76,78,80,82,-1,84,86,-1,-1,-1,-1,-1,-1,-1,-1,-1,-1,-1,-1,-1,-1,-1,-1,-1,-1,-1,-1,-1,-1,-1,-1,-1,-1,-1,-1,-1,-1,-1,-1,-1,-1,-1,-1,-1,-1],"split_conditions":[-1.2024481E0,-2.1195614E0,-3.5353407E-1,7.258676E-1,4.9484476E-1,3.9049193E-1,1.9373326E-2,4.2944148E-1,2.8660297E-2,7.1587414E-1,-8.681261E-1,1.780463E-1,6.1447257E-1,1.488842E0,3.4397006E-1,-6.2654493E-4,-1.6253155E0,9.999794E-1,5.8574724E-1,9.9978745E-1,-1.8397903E-3,1.2903891E0,1.1499332E-2,8.4356576E-1,-2.0521628E-3,4.152058E-1,8.185238E-1,-5.491607E-1,-6.643754E-1,6.794087E-1,1.9284431E0,3.4937465E-1,-2.1564483E-4,-9.2179054E-1,-1.4495497E0,-6.7037284E-1,1.3705618E0,6.8856305E-1,3.3476406E-1,1.284793E-1,-6.8574265E-2,-4.485353E-1,9.9929965E-1,4.3417707E-1,3.8482833E-1,-8.3964735E-1,5.9280205E-3,4.6950546E-1,1.7380577E0,-3.5017833E-2,3.7147216E-2,2.8584937E-2,2.8660297E-2,2.889296E-2,1.0130326E-2,2.0183733E-2,1.9656243E-2,2.8435057E-2,-2.0606536E-2,1.7461022E-2,1.05555635E-2,2.8666796E-2,2.938979E-2,2.9504301E-2,2.9122515E-2,-6.1264036E-5,9.116153E-3,8.327064E-3,1.519411E-2,3.4388218E-2,-2.3880004E-4,4.4325828E-3,-1.0214977E-2,3.2851256E-2,-4.3656386E-2,1.2288481E-2,1.4843286E-2,-2.3477307E-2,-2.9994182E-2,-4.43585E-2,-2.287822E-2,1.1485962E-2,-3.8503017E-2,-2.5020218E-3,3.9310454E-4,-1.006376E-2,4.4279126E-3],"split_indices":[56,56,56,212,212,212,212,212,0,259,170,193,141,259,212,0,9,260,141,260,0,259,30,259,0,32,38,127,0,259,34,212,0,9,14,101,46,141,212,0,4,126,260,198,161,43,0,22,259,0,0,0,0,0,0,0,0,0,0,0,0,0,0,0,0,0,0,0,0,0,0,0,0,0,0,0,0,0,0,0,0,0,0,0,0,0,0],"split_type":[0,0,0,0,0,0,0,0,0,0,0,0,0,0,0,0,0,0,0,0,0,0,0,0,0,0,0,0,0,0,0,0,0,0,0,0,0,0,0,0,0,0,0,0,0,0,0,0,0,0,0,0,0,0,0,0,0,0,0,0,0,0,0,0,0,0,0,0,0,0,0,0,0,0,0,0,0,0,0,0,0,0,0,0,0,0,0],"sum_hessian":[1.1696E4,1.046E3,1.065E4,2.82E2,7.64E2,1.961E3,8.689E3,1.52E2,1.3E2,4.53E2,3.11E2,1.693E3,2.68E2,5.312E3,3.377E3,3E0,1.49E2,7.9E1,3.74E2,3.04E2,7E0,1.663E3,3E1,2.46E2,2.2E1,5.265E3,4.7E1,3.374E3,3E0,9E1,5.9E1,7.5E1,4E0,8E0,3.66E2,1.12E2,1.92E2,1.243E3,4.2E2,2.2E1,8E0,8E0,2.38E2,2.7E3,2.565E3,4.5E1,2E0,3.71E2,3.003E3,1E0,2E0,2.4E1,6.6E1,5E1,9E0,1E1,6.5E1,7E0,1E0,1.48E2,2.18E2,8.1E1,3.1E1,7.6E1,1.16E2,1.238E3,5E0,3.11E2,1.09E2,1.9E1,3E0,3E0,5E0,7E0,1E0,1.27E2,1.11E2,2.524E3,1.76E2,2.549E3,1.6E1,1.1E1,3.4E1,3.7E2,1E0,2.977E3,2.6E1],"tree_param":{"num_deleted":"0","num_feature":"261","num_nodes":"87","size_leaf_vector":"1"}},{"base_weights":[-8.13896E-3,4.2344356E-1,-4.9863655E-2,3.187894E-1,7.7330506E-1,5.1044907E-2,-7.20069E-2,4.3879595E-1,2.4565654E-1,8.473333E-1,6.367816E-1,8.850929E-2,1.2855614E-2,-9.026196E-2,-5.0313544E-2,6.188679E-1,3.9838055E-1,1.4945053E-1,3.623318E-1,1.7061224E-2,4.2499998E-1,6.5411764E-1,-1.3333337E-3,2.7033469E-2,1.351548E-1,1.0392341E-2,3.4285712E-1,-8.183056E-2,-9.758705E-2,-4.0000025E-2,-8.095715E-2,-1.5000004E-3,6.62E-1,5.518072E-1,3.1878784E-1,3.0638295E-1,1.1629953E-1,3.751152E-1,-1.714286E-3,-1.0000002E-3,1.1999999E-2,3.25E-1,6.9864863E-1,4.0499997E-1,8.020027E-3,6.0999995E-1,1.2611109E-1,8.543687E-2,1.1890369E-3,-1.3333337E-3,5.2E-1,-8.22676E-2,2.6666665E-1,-9.797942E-2,1.1999998E-1,-2.3002982E-2,-5.403919E-2,-8.193615E-2,9E-3,1.3458333E-2,5.333333E-3,9.794117E-3,1.5625E-2,1.0370365E-3,7.3669055E-3,8.342857E-3,-3.0769274E-4,1.6804729E-3,4.135593E-3,8.941175E-3,5.696969E-3,1.1666666E-2,1.1428567E-3,1.2195121E-2,1.5705882E-2,1.3166666E-2,4.4444398E-4,1.7379306E-3,-7.372553E-4,1.3777777E-2,-1.0000002E-3,2.9393935E-3,5.063244E-5,1.0322576E-3,7.272727E-3,8.272722E-4,-2.6045062E-4,-1.0000002E-3,1.34999985E-2,2.3999996E-3,-1.6537942E-3,-1.0000002E-3,9E-3,-6.2500045E-4,-1.9673181E-3,9E-3,-1.5000004E-3,3.3684205E-3,-5.142433E-4,1.8333286E-4,-1.1801985E-3,-1.8616016E-3,-1.015038E-3],"categories":[],"categories_nodes":[],"categories_segments":[],"categories_sizes":[],"default_left":[0,0,0,0,0,0,0,0,0,0,0,0,0,0,0,0,0,0,0,0,0,0,0,0,0,0,0,0,0,0,0,0,0,0,0,0,0,0,0,0,0,0,0,0,0,0,0,0,0,0,0,0,0,0,0,0,0,0,0,0,0,0,0,0,0,0,0,0,0,0,0,0,0,0,0,0,0,0,0,0,0,0,0,0,0,0,0,0,0,0,0,0,0,0,0,0,0,0,0,0,0,0,0],"id":14,"left_children":[1,3,5,7,9,11,13,15,17,19,21,23,25,27,29,31,33,35,37,-1,39,41,-1,43,45,47,49,51,53,55,57,-1,59,61,63,65,67,69,-1,-1,-1,71,73,75,77,79,81,83,85,-1,87,89,91,93,95,97,99,101,-1,-1,-1,-1,-1,-1,-1,-1,-1,-1,-1,-1,-1,-1,-1,-1,-1,-1,-1,-1,-1,-1,-1,-1,-1,-1,-1,-1,-1,-1,-1,-1,-1,-1,-1,-1,-1,-1,-1,-1,-1,-1,-1,-1,-1],"loss_changes":[2.0999031E2,3.7393143E1,2.376251E1,6.8519135E0,1.8455963E0,2.7372956E0,3.4487E0,1.9294853E0,5.5021553E0,3.1280518E-4,1.1045723E0,2.7664208E0,7.678636E-1,2.8438568E-1,1.2568274E0,1.635828E0,2.8403664E0,1.3846407E0,1.309391E0,0E0,3.6249995E-1,1.018692E0,0E0,3.000686E0,2.2806778E0,6.511885E-1,5.424762E-1,3.5807705E-1,2.2758675E-1,7.110505E-1,5.582371E-1,0E0,3.634262E-2,8.000603E-1,2.1636295E0,1.6814475E0,6.4553976E-1,1.2818813E0,0E0,0E0,0E0,7.970239E-1,9.112167E-2,1.9247777E0,1.4157423E0,5.5511117E-1,1.3915825E0,9.5044273E-1,4.8070234E-1,0E0,4.755E-1,1.9818401E-1,1.9666666E-1,6.2021255E-2,3.5549998E-1,7.0548195E-1,5.139098E-1,3.4348583E-1,0E0,0E0,0E0,0E0,0E0,0E0,0E0,0E0,0E0,0E0,0E0,0E0,0E0,0E0,0E0,0E0,0E0,0E0,0E0,0E0,0E0,0E0,0E0,0E0,0E0,0E0,0E0,0E0,0E0,0E0,0E0,0E0,0E0,0E0,0E0,0E0,0E0,0E0,0E0,0E0,0E0,0E0,0E0,0E0,0E0],"parents":[2147483647,0,0,1,1,2,2,3,3,4,4,5,5,6,6,7,7,8,8,9,9,10,10,11,11,12,12,13,13,14,14,15,15,16,16,17,17,18,18,20,20,21,21,23,23,24,24,25,25,26,26,27,27,28,28,29,29,30,30,32,32,33,33,34,34,35,35,36,36,37,37,41,41,42,42,43,43,44,44,45,45,46,46,47,47,48,48,50,50,51,51,52,52,53,53,54,54,55,55,56,56,57,57],"right_children":[2,4,6,8,10,12,14,16,18,20,22,24,26,28,30,32,34,36,38,-1,40,42,-1,44,46,48,50,52,54,56,58,-1,60,62,64,66,68,70,-1,-1,-1,72,74,76,78,80,82,84,86,-1,88,90,92,94,96,98,100,102,-1,-1,-1,-1,-1,-1,-1,-1,-1,-1,-1,-1,-1,-1,-1,-1,-1,-1,-1,-1,-1,-1,-1,-1,-1,-1,-1,-1,-1,-1,-1,-1,-1,-1,-1,-1,-1,-1,-1,-1,-1,-1,-1,-1,-1],"split_conditions":[-1.2024481E0,1.3929157E1,-3.6798164E-1,-7.396664E-1,-8.329293E-1,-6.205677E-1,1.264702E1,5.8197963E-1,6.9794285E-1,-3.1525198E-1,1.3190023E1,3.6283967E-1,6.8856305E-1,4.0839794E-1,3.9138764E-1,1.7244852E-1,-1.3487443E0,1.4216969E1,-1.1944805E0,2.80871E-2,-7.986529E-1,7.738245E-1,-1.9151687E-4,2.8212038E-1,3.8005772E-1,1.1610504E1,-1.1725667E0,4.2372864E-1,1.2579362E1,4.6466672E-1,8.1160384E-1,-2.0477294E-3,3.7613517E-1,-1.3316828E0,-1.317607E0,4.6033072E-1,5.286997E-1,-5.129274E-1,-1.2415122E-3,-2.1772766E-3,1.799221E-3,-7.280365E-1,2.685995E0,-5.411311E-1,-5.611556E-1,4.3205228E-1,5.9916556E-1,4.5219052E-1,1.3640586E1,-1.0484104E-2,1.1544857E1,-5.359206E-1,-4.353351E-1,-4.3308175E-1,-8.9700156E-1,1.2830676E1,-7.1388453E-1,7.74796E-1,1.1382446E-2,2.8597398E-2,2.8150596E-2,2.8118541E-2,2.6025632E-2,3.9612656E-3,2.8185157E-2,2.6370248E-2,8.8181166E-4,6.1679506E-3,1.7158376E-2,2.829386E-2,1.3964476E-2,2.1501673E-2,2.4830036E-2,2.80871E-2,2.8088607E-2,2.5456294E-2,2.3873786E-2,6.7321565E-3,-2.233344E-3,3.225336E-2,-9.834499E-3,1.4861643E-2,1.2019753E-3,8.981213E-3,2.9682254E-2,5.2233892E-3,-4.7064282E-4,-1.6985148E-2,8.93383E-3,6.132927E-3,-2.2092069E-2,-6.9179536E-5,4.5050316E-2,-9.310481E-3,-4.2090368E-2,1.12031745E-2,-1.7057095E-2,8.368486E-3,-2.5630947E-3,2.274297E-3,-9.758368E-3,-2.7495453E-2,-1.8976951E-2],"split_indices":[56,256,56,24,24,24,258,141,141,38,257,156,141,32,56,141,60,258,1,0,3,141,0,141,15,256,56,86,258,141,5,0,8,170,3,8,8,24,0,0,0,24,15,56,202,21,141,33,258,0,256,225,2,82,0,258,24,110,0,0,0,0,0,0,0,0,0,0,0,0,0,0,0,0,0,0,0,0,0,0,0,0,0,0,0,0,0,0,0,0,0,0,0,0,0,0,0,0,0,0,0,0,0],"split_type":[0,0,0,0,0,0,0,0,0,0,0,0,0,0,0,0,0,0,0,0,0,0,0,0,0,0,0,0,0,0,0,0,0,0,0,0,0,0,0,0,0,0,0,0,0,0,0,0,0,0,0,0,0,0,0,0,0,0,0,0,0,0,0,0,0,0,0,0,0,0,0,0,0,0,0,0,0,0,0,0,0,0,0,0,0,0,0,0,0,0,0,0,0,0,0,0,0,0,0,0,0,0,0],"sum_hessian":[1.1659E4,1.027E3,1.0632E4,7.92E2,2.35E2,1.913E3,8.719E3,2.98E2,4.94E2,1.49E2,8.6E1,9.65E2,9.48E2,4.733E3,3.986E3,5.2E1,2.46E2,2.72E2,2.22E2,1.46E2,3E0,8.4E1,2E0,4.17E2,5.48E2,9.42E2,6E0,2.206E3,2.527E3,2.984E3,1.002E3,3E0,4.9E1,8.2E1,1.64E2,4.6E1,2.26E2,2.16E2,6E0,1E0,2E0,1.1E1,7.3E1,1.9E1,3.98E2,9E0,5.39E2,1.02E2,8.4E2,2E0,4E0,2.204E3,2E0,2.523E3,4E0,1.351E3,1.633E3,1.001E3,1E0,4.7E1,2E0,6.7E1,1.5E1,2.6E1,1.38E2,3.4E1,1.2E1,1.68E2,5.8E1,1.18E2,9.8E1,5E0,6E0,4E1,3.3E1,1.1E1,8E0,1.44E2,2.54E2,8E0,1E0,4.61E2,7.8E1,9.2E1,1E1,2.19E2,6.21E2,1E0,3E0,4E0,2.2E3,1E0,1E0,1.5E1,2.508E3,1E0,3E0,1.8E1,1.333E3,1.19E2,1.514E3,7.36E2,2.65E2],"tree_param":{"num_deleted":"0","num_feature":"261","num_nodes":"103","size_leaf_vector":"1"}},{"base_weights":[-7.030264E-3,-4.3621384E-2,4.7311434E-1,-6.703528E-2,8.57834E-2,3.6209813E-1,7.538793E-1,-8.903612E-2,-3.7840616E-2,5.1117044E-2,1.5813082E-1,4.0124223E-1,1.8532108E-1,5.9E-1,8.517482E-1,-9.044006E-2,1.095888E-2,-4.880514E-2,-3.7617793E-3,2.2685764E-2,1.1274785E-1,6.363636E-1,1.478095E-1,6.02E-1,3.7718892E-1,3.3962242E-2,3.2280698E-1,1.6249998E-1,6.2409633E-1,4.2499998E-1,1.7157141E-2,-9.525266E-2,-7.908797E-2,2.1874997E-1,-4.655175E-2,-5.1611822E-2,9.821426E-2,-1.4900686E-2,1.903846E-1,1.6447367E-1,7.080901E-3,5.0267357E-2,1.8203591E-1,-1.0000002E-3,7.1E-1,-4.750002E-2,1.6358022E-1,1.6249998E-1,6.6976744E-1,5.3975904E-1,3.3778408E-1,3.2E-1,4.081609E-3,4.2894736E-1,1.04999974E-1,1.1999999E-2,-1.6666669E-3,4.9444443E-1,8.3666664E-1,1.1999999E-2,-1.0000002E-3,-1.9200458E-3,-1.184211E-3,-1.7357038E-3,-7.5206655E-4,-1.6666669E-3,7.272727E-3,-1.9523813E-3,1.6470584E-3,-4.8816612E-4,-1.1958951E-3,4.8979546E-4,1.0749999E-2,-3.719381E-4,7.1111107E-3,1.463414E-3,1.1499999E-2,1.1555554E-2,2.1470583E-3,6.5126E-4,-9.76959E-4,-1.4084511E-3,2.461538E-3,2.6766912E-3,7.1999994E-3,-1.0000002E-3,1.5999999E-2,9E-3,-1.4358979E-3,3.149377E-3,1.4399999E-2,8.4999995E-3,-1.6000004E-3,1.6538462E-2,8.111111E-3,8.777778E-3,1.4066666E-2,-1.7500004E-3,6.9333324E-3,-1.3333337E-3,1.1999999E-2,-6.2222267E-4,6.4E-3,1.0482758E-2,2.1999995E-3,5.454545E-3,-1.8000003E-3,-1.6000004E-3,1.084E-2,5.333333E-3,1.735714E-2],"categories":[],"categories_nodes":[],"categories_segments":[],"categories_sizes":[],"default_left":[0,0,0,0,0,0,0,0,0,0,0,0,0,0,0,0,0,0,0,0,0,0,0,0,0,0,0,0,0,0,0,0,0,0,0,0,0,0,0,0,0,0,0,0,0,0,0,0,0,0,0,0,0,0,0,0,0,0,0,0,0,0,0,0,0,0,0,0,0,0,0,0,0,0,0,0,0,0,0,0,0,0,0,0,0,0,0,0,0,0,0,0,0,0,0,0,0,0,0,0,0,0,0,0,0,0,0,0,0,0,0],"id":15,"left_children":[1,3,5,7,9,11,13,15,17,19,21,23,25,27,29,31,33,35,37,39,41,43,45,47,49,51,53,55,57,59,-1,61,63,65,67,69,71,73,75,77,79,81,83,-1,85,87,89,91,93,95,97,99,101,103,105,-1,-1,107,109,-1,-1,-1,-1,-1,-1,-1,-1,-1,-1,-1,-1,-1,-1,-1,-1,-1,-1,-1,-1,-1,-1,-1,-1,-1,-1,-1,-1,-1,-1,-1,-1,-1,-1,-1,-1,-1,-1,-1,-1,-1,-1,-1,-1,-1,-1,-1,-1,-1,-1,-1,-1],"loss_changes":[2.0394434E2,3.2685925E1,2.5348328E1,5.863468E0,4.1376753E0,4.0152283E0,3.2184448E0,7.321167E-1,1.4671726E0,1.9582016E0,2.5466957E0,2.1052856E0,2.257295E0,1.2104416E0,8.201599E-3,2.7306366E-1,8.8254756E-1,1.2310123E0,2.0724244E0,1.6958848E0,1.5190401E0,5.914545E-1,1.6248598E0,1.380352E0,2.5978966E0,4.5168433E-1,1.2726932E0,9.104167E-1,1.873806E0,3.6249995E-1,0E0,9.163284E-2,4.8688793E-1,7.305872E-1,3.8984254E-1,6.476555E-1,1.8004591E0,1.2471868E0,2.3022044E0,1.7321999E0,9.878184E-1,1.651907E0,1.3843632E0,0E0,7.2400045E-1,5.157757E-1,1.539259E0,5.4325E-1,1.450098E0,1.0607948E0,1.360054E0,5.813333E-1,5.5473924E-1,1.0960541E0,6.7868185E-1,0E0,0E0,1.5185318E0,3.0192947E-1,0E0,0E0,0E0,0E0,0E0,0E0,0E0,0E0,0E0,0E0,0E0,0E0,0E0,0E0,0E0,0E0,0E0,0E0,0E0,0E0,0E0,0E0,0E0,0E0,0E0,0E0,0E0,0E0,0E0,0E0,0E0,0E0,0E0,0E0,0E0,0E0,0E0,0E0,0E0,0E0,0E0,0E0,0E0,0E0,0E0,0E0,0E0,0E0,0E0,0E0,0E0,0E0],"parents":[2147483647,0,0,1,1,2,2,3,3,4,4,5,5,6,6,7,7,8,8,9,9,10,10,11,11,12,12,13,13,14,14,15,15,16,16,17,17,18,18,19,19,20,20,21,21,22,22,23,23,24,24,25,25,26,26,27,27,28,28,29,29,31,31,32,32,33,33,34,34,35,35,36,36,37,37,38,38,39,39,40,40,41,41,42,42,44,44,45,45,46,46,47,47,48,48,49,49,50,50,51,51,52,52,53,53,54,54,57,57,58,58],"right_children":[2,4,6,8,10,12,14,16,18,20,22,24,26,28,30,32,34,36,38,40,42,44,46,48,50,52,54,56,58,60,-1,62,64,66,68,70,72,74,76,78,80,82,84,-1,86,88,90,92,94,96,98,100,102,104,106,-1,-1,108,110,-1,-1,-1,-1,-1,-1,-1,-1,-1,-1,-1,-1,-1,-1,-1,-1,-1,-1,-1,-1,-1,-1,-1,-1,-1,-1,-1,-1,-1,-1,-1,-1,-1,-1,-1,-1,-1,-1,-1,-1,-1,-1,-1,-1,-1,-1,-1,-1,-1,-1,-1,-1],"split_conditions":[1.2943798E1,2.492943E-1,6.4719564E-1,1.753504E-2,1.2416643E1,-1.4557217E0,7.258676E-1,1.1258965E1,1.1544857E1,1.3549469E0,-1.0981783E0,-2.61792E0,-3.3846274E-1,6.824205E-1,1.3618131E1,1.2341831E1,-3.2867894E-1,9.420857E-1,2.7640942E-1,9.963161E-1,3.2060295E-1,-5.226471E-2,-3.0092627E-1,6.2383944E-1,9.9988425E-1,-8.595433E-1,-1.2461084E0,6.795464E-1,1.7098998E0,3.9735907E-1,2.7525367E-2,1.0839057E-2,4.3417707E-1,2.5967565E-1,9.9965644E-1,-4.3078437E-1,4.0388092E-1,1.4040605E0,5.4257613E-1,-6.344211E-1,2.7745938E-1,-6.664614E-1,6.295068E-1,-4.0248106E-3,1.0814376E0,-6.5554315E-1,-2.8717017E-1,-4.9693295E-1,9.9996793E-1,6.241825E-1,-1.9418527E0,3.7785026E-1,6.9794285E-1,1.3245925E1,1.6691828E-1,8.576259E-3,-1.8768311E-4,7.543598E-1,-1.1149552E0,1.4005966E-2,-2.5759887E-2,-3.393447E-2,-2.2523794E-2,-2.1465309E-2,-2.943728E-2,-3.80002E-2,1.4496301E-2,-9.189512E-3,2.7155622E-3,-2.4007033E-3,-1.1749229E-2,1.7608405E-3,1.1154804E-2,-5.4581556E-4,9.3033975E-3,2.5934782E-3,2.4637649E-2,3.165365E-2,1.0199726E-2,4.461848E-3,-4.5853723E-3,-6.102818E-3,1.1787556E-2,1.2252694E-2,2.845406E-2,-9.716072E-3,2.8505515E-2,2.7985E-3,-4.653213E-3,1.3067885E-2,4.52877E-3,2.7526835E-2,-8.933067E-4,2.7525954E-2,2.7532298E-2,2.7604613E-2,2.8697815E-2,-1.9563865E-3,2.3770932E-2,-8.411732E-3,2.6383761E-2,-1.4736867E-3,1.3478088E-2,2.3748616E-2,2.5579508E-2,2.2213986E-2,-2.4872208E-3,-6.7476653E-3,2.7514495E-2,2.5609778E-2,2.7759833E-2],"split_indices":[256,212,212,212,256,56,212,256,256,259,24,149,193,259,256,258,24,99,193,260,212,141,43,259,260,24,56,212,0,0,0,212,198,4,260,4,172,18,141,9,99,24,80,0,259,56,57,24,260,141,26,0,141,256,8,0,0,259,193,0,0,0,0,0,0,0,0,0,0,0,0,0,0,0,0,0,0,0,0,0,0,0,0,0,0,0,0,0,0,0,0,0,0,0,0,0,0,0,0,0,0,0,0,0,0,0,0,0,0,0,0],"split_type":[0,0,0,0,0,0,0,0,0,0,0,0,0,0,0,0,0,0,0,0,0,0,0,0,0,0,0,0,0,0,0,0,0,0,0,0,0,0,0,0,0,0,0,0,0,0,0,0,0,0,0,0,0,0,0,0,0,0,0,0,0,0,0,0,0,0,0,0,0,0,0,0,0,0,0,0,0,0,0,0,0,0,0,0,0,0,0,0,0,0,0,0,0,0,0,0,0,0,0,0,0,0,0,0,0,0,0,0,0,0,0],"sum_hessian":[1.1606E4,1.0785E4,8.21E2,9.133E3,1.652E3,5.9E2,2.31E2,5.207E3,3.926E3,1.118E3,5.34E2,4.82E2,1.08E2,8.9E1,1.42E2,5.135E3,7.2E1,2.97E3,9.56E2,7.66E2,3.52E2,1E1,5.24E2,4.9E1,4.33E2,5.2E1,5.6E1,7E0,8.2E1,3E0,1.39E2,3.601E3,1.534E3,1.5E1,5.7E1,2.915E3,5.5E1,9.05E2,5.1E1,7.5E1,6.91E2,1.86E2,1.66E2,1E0,9E0,3.9E1,4.85E2,7E0,4.2E1,8.2E1,3.51E2,4E0,4.8E1,3.7E1,1.9E1,2E0,5E0,5.3E1,2.9E1,2E0,1E0,3.526E3,7.5E1,1.293E3,2.41E2,5E0,1E1,4.1E1,1.6E1,6.75E2,2.24E3,4.8E1,7E0,8.97E2,8E0,4E1,1.1E1,8E0,6.7E1,4.75E2,2.16E2,7E1,1.16E2,1.32E2,3.4E1,1E0,8E0,1E0,3.8E1,4.81E2,4E0,3E0,4E0,2.5E1,1.7E1,5.3E1,2.9E1,7E0,3.44E2,2E0,2E0,4.4E1,4E0,2.8E1,9E0,1E1,9E0,4E0,4.9E1,2E0,2.7E1],"tree_param":{"num_deleted":"0","num_feature":"261","num_nodes":"111","size_leaf_vector":"1"}},{"base_weights":[-9.215659E-3,4.029356E-1,-5.0531637E-2,7.0036364E-1,2.9782605E-1,5.0243087E-2,-7.200601E-2,5.605442E-1,1.7085271E-2,2.2039472E-1,4.0489295E-1,4.42434E-2,4.392857E-1,-8.9228794E-2,-4.375572E-2,2.6428568E-1,5.873134E-1,6.583333E-1,2.0808986E-1,5.859649E-1,3.6531362E-1,2.7668688E-2,1.8256408E-1,6.9285715E-1,1.7333332E-1,-9.0250775E-2,1.960782E-2,-3.1070914E-2,-6.308521E-2,4.0999997E-1,-1.6000004E-3,6.007692E-1,1.1999998E-1,1.62E-2,-1.3333337E-3,3.0264547E-1,1.3774316E-1,6.2407404E-1,-1.5000004E-3,3.867704E-1,-2.666669E-2,5.6930454E-3,9.1169424E-2,1.5E-2,1.6368419E-1,1.5076922E-2,-1.0000002E-3,-1.714286E-3,3.5555553E-1,-9.90178E-2,-8.4377944E-2,-3.2608718E-2,4.1666666E-1,-3.762042E-2,2.0444421E-2,-6.509291E-2,1.5833332E-1,1.2571428E-2,-1.5000004E-3,1.1232142E-2,1.5999999E-2,9E-3,-1.5000004E-3,6.5027927E-3,-1.8181823E-3,7.1818177E-3,2.3305079E-3,-1.3333337E-3,1.3038461E-2,1.18125E-2,7.123893E-3,5.333333E-3,-1.8461543E-3,-1.5303035E-3,3.1452312E-4,2.9529408E-3,1.0479995E-3,1.6880729E-3,5.341463E-3,1.1666666E-2,-1.5000004E-3,-1.9895935E-3,-1.1200005E-3,-9.30233E-4,-1.7653944E-3,-1.95122E-3,8.333333E-3,-1.3333337E-3,1.34999985E-2,9E-3,-7.63039E-4,-4.7945252E-4,2.0249996E-3,-1.4023182E-3,1.41176E-4,6.4E-3,7.4999954E-4],"categories":[],"categories_nodes":[],"categories_segments":[],"categories_sizes":[],"default_left":[0,0,0,0,0,0,0,0,0,0,0,0,0,0,0,0,0,0,0,0,0,0,0,0,0,0,0,0,0,0,0,0,0,0,0,0,0,0,0,0,0,0,0,0,0,0,0,0,0,0,0,0,0,0,0,0,0,0,0,0,0,0,0,0,0,0,0,0,0,0,0,0,0,0,0,0,0,0,0,0,0,0,0,0,0,0,0,0,0,0,0,0,0,0,0,0,0],"id":16,"left_children":[1,3,5,7,9,11,13,15,-1,17,19,21,23,25,27,29,31,33,35,37,39,41,43,45,47,49,51,53,55,57,-1,59,61,-1,-1,63,65,67,-1,69,71,73,75,-1,77,-1,-1,-1,79,81,83,85,87,89,91,93,95,-1,-1,-1,-1,-1,-1,-1,-1,-1,-1,-1,-1,-1,-1,-1,-1,-1,-1,-1,-1,-1,-1,-1,-1,-1,-1,-1,-1,-1,-1,-1,-1,-1,-1,-1,-1,-1,-1,-1,-1],"loss_changes":[1.9736284E2,3.280464E1,2.2799976E1,5.4386444E0,6.3938065E0,4.3010488E0,4.221283E0,1.0105782E0,0E0,2.3202858E0,2.1294518E0,4.1766963E0,1.768167E0,6.0173416E-1,8.0496264E-1,7.351428E-1,7.705078E-1,1.3734999E0,2.9183083E0,1.4825687E0,2.289589E0,2.2740965E0,1.9662971E0,6.71978E-1,7.385397E-1,2.667923E-1,1.070972E0,6.7185783E-1,5.895419E-1,1.1072145E0,0E0,5.650139E-1,3.5549998E-1,0E0,0E0,1.7027149E0,1.1651583E0,1.0822296E0,0E0,1.3915062E0,3.1343588E-1,1.0008659E0,9.097085E-1,0E0,1.5348372E0,0E0,0E0,0E0,9.2638886E-1,3.6909103E-2,4.6850014E-1,1.3829976E0,7.9416656E-1,4.746306E-1,8.099847E-1,4.6874046E-1,2.2241667E-1,0E0,0E0,0E0,0E0,0E0,0E0,0E0,0E0,0E0,0E0,0E0,0E0,0E0,0E0,0E0,0E0,0E0,0E0,0E0,0E0,0E0,0E0,0E0,0E0,0E0,0E0,0E0,0E0,0E0,0E0,0E0,0E0,0E0,0E0,0E0,0E0,0E0,0E0,0E0,0E0],"parents":[2147483647,0,0,1,1,2,2,3,3,4,4,5,5,6,6,7,7,9,9,10,10,11,11,12,12,13,13,14,14,15,15,16,16,17,17,18,18,19,19,20,20,21,21,22,22,23,23,24,24,25,25,